{"learner":{"attributes":{"scikit_learn":"{\"_estimator_type\": \"classifier\"}"},"feature_names":[],"feature_types":[],"gradient_booster":{"model":{"gbtree_model_param":{"num_parallel_tree":"1","num_trees":"100"},"iteration_indptr":[0,1,2,3,4,5,6,7,8,9,10,11,12,13,14,15,16,17,18,19,20,21,22,23,24,25,26,27,28,29,30,31,32,33,34,35,36,37,38,39,40,41,42,43,44,45,46,47,48,49,50,51,52,53,54,55,56,57,58,59,60,61,62,63,64,65,66,67,68,69,70,71,72,73,74,75,76,77,78,79,80,81,82,83,84,85,86,87,88,89,90,91,92,93,94,95,96,97,98,99,100],"tree_info":[0,0,0,0,0,0,0,0,0,0,0,0,0,0,0,0,0,0,0,0,0,0,0,0,0,0,0,0,0,0,0,0,0,0,0,0,0,0,0,0,0,0,0,0,0,0,0,0,0,0,0,0,0,0,0,0,0,0,0,0,0,0,0,0,0,0,0,0,0,0,0,0,0,0,0,0,0,0,0,0,0,0,0,0,0,0,0,0,0,0,0,0,0,0,0,0,0,0,0,0],"trees":[{"base_weights":[2.1520317E-2,8.062886E-1,-1.5787182E0,-5.573218E-1,1.1064951E0,-8.648489E-1,-2.0068107E0,-4.8186798E-3,-1.4996043E-1,1.2861326E-1,3.0446539E-2,-1.2472852E-1,-1.3886047E-2,-1.3251282E-1,-2.3082404E-1],"categories":[],"categories_nodes":[],"categories_segments":[],"categories_sizes":[],"default_left":[0,0,0,0,0,0,0,0,0,0,0,0,0,0,0],"id":0,"left_children":[1,3,5,7,9,11,13,-1,-1,-1,-1,-1,-1,-1,-1],"loss_changes":[7.6910736E2,1.6882483E2,5.9849884E1,3.581526E1,4.8175323E1,2.1289482E1,2.2671295E1,0E0,0E0,0E0,0E0,0E0,0E0,0E0,0E0],"parents":[2147483647,0,0,1,1,2,2,3,3,4,4,5,5,6,6],"right_children":[2,4,6,8,10,12,14,-1,-1,-1,-1,-1,-1,-1,-1],"split_conditions":[7.8947234E-1,3E0,8.3176714E-1,-2.0346024E-8,-2.4691381E-8,7.833291E-3,5.578755E-2,-4.8186798E-3,-1.4996043E-1,1.2861326E-1,3.0446539E-2,-1.2472852E-1,-1.3886047E-2,-1.3251282E-1,-2.3082404E-1],"split_indices":[384,388,384,319,319,369,99,0,0,0,0,0,0,0,0],"split_type":[0,0,0,0,0,0,0,0,0,0,0,0,0,0,0],"sum_hessian":[6.104224E2,4.0990048E2,2.0052196E2,7.3804794E1,3.360957E2,7.63028E1,1.24219154E2,4.8597622E1,2.5207176E1,2.7409967E2,6.199603E1,4.950599E1,2.679682E1,3.9741043E1,8.44781E1],"tree_param":{"num_deleted":"0","num_feature":"392","num_nodes":"15","size_leaf_vector":"1"}},{"base_weights":[2.1317707E-2,7.957125E-1,-1.3205094E0,-3.9802875E-2,1.1510789E0,-7.6194495E-1,-1.8585782E0,3.3664644E-2,-9.147438E-2,8.9070015E-2,1.3601655E-1,-1.0606121E-1,2.8170202E-2,-1.1259718E-1,-2.0519684E-1],"categories":[],"categories_nodes":[],"categories_segments":[],"categories_sizes":[],"default_left":[0,0,0,0,0,0,0,0,0,0,0,0,0,0,0],"id":1,"left_children":[1,3,5,7,9,11,13,-1,-1,-1,-1,-1,-1,-1,-1],"loss_changes":[6.336553E2,1.1484563E2,6.565228E1,3.8628017E1,1.3558533E1,3.4956116E1,1.3694733E1,0E0,0E0,0E0,0E0,0E0,0E0,0E0,0E0],"parents":[2147483647,0,0,1,1,2,2,3,3,4,4,5,5,6,6],"right_children":[2,4,6,8,10,12,14,-1,-1,-1,-1,-1,-1,-1,-1],"split_conditions":[-2.210411E-8,4E0,8.311785E-1,8.1726635E-1,8E0,2E0,-3.8278073E-2,3.3664644E-2,-9.147438E-2,8.9070015E-2,1.3601655E-1,-1.0606121E-1,2.8170202E-2,-1.1259718E-1,-2.0519684E-1],"split_indices":[319,388,384,384,388,387,116,0,0,0,0,0,0,0,0],"split_type":[0,0,0,0,0,0,0,0,0,0,0,0,0,0,0],"sum_hessian":[6.077982E2,3.8564304E2,2.2215517E2,1.1534324E2,2.7029977E2,1.1018704E2,1.11968124E2,8.107528E1,3.426796E1,1.2272651E2,1.4757329E2,8.565761E1,2.452944E1,2.4808844E1,8.715928E1],"tree_param":{"num_deleted":"0","num_feature":"392","num_nodes":"15","size_leaf_vector":"1"}},{"base_weights":[2.1019975E-2,7.166484E-1,-1.2021674E0,9.846304E-1,-3.5008383E-1,-1.7263359E0,-7.351425E-1,1.1031518E-1,8.407886E-3,-1.007816E-1,4.0862644E-3,-1.830753E-1,-5.0020974E-2,-5.331104E-2,-1.8960743E-1],"categories":[],"categories_nodes":[],"categories_segments":[],"categories_sizes":[],"default_left":[0,0,0,0,0,0,0,0,0,0,0,0,0,0,0],"id":2,"left_children":[1,3,5,7,9,11,13,-1,-1,-1,-1,-1,-1,-1,-1],"loss_changes":[5.1354895E2,1.10323975E2,5.2295654E1,3.275406E1,2.0093357E1,1.2188782E1,2.6537575E1,0E0,0E0,0E0,0E0,0E0,0E0,0E0,0E0],"parents":[2147483647,0,0,1,1,2,2,3,3,4,4,5,5,6,6],"right_children":[2,4,6,8,10,12,14,-1,-1,-1,-1,-1,-1,-1,-1],"split_conditions":[-2.180464E-8,7.5837475E-1,3E0,6.883945E-2,2.6923078E-1,5.3103466E-2,8.923531E-1,1.1031518E-1,8.407886E-3,-1.007816E-1,4.0862644E-3,-1.830753E-1,-5.0020974E-2,-5.331104E-2,-1.8960743E-1],"split_indices":[319,384,385,99,391,268,384,0,0,0,0,0,0,0,0],"split_type":[0,0,0,0,0,0,0,0,0,0,0,0,0,0,0],"sum_hessian":[6.015351E2,3.8372452E2,2.178106E2,3.067424E2,7.698215E1,1.01356255E2,1.1645434E2,2.7086847E2,3.5873924E1,2.8110641E1,4.8871502E1,9.29477E1,8.408556E0,1.0043522E2,1.6019117E1],"tree_param":{"num_deleted":"0","num_feature":"392","num_nodes":"15","size_leaf_vector":"1"}},{"base_weights":[2.0010356E-2,-7.626778E-1,9.659893E-1,-2.3671043E-1,-1.3379697E0,1.2065294E0,6.0098904E-1,1.7942954E-2,-8.581899E-2,-9.382484E-2,-1.574059E-1,4.158818E-2,1.260397E-1,6.9860056E-2,-7.441223E-2],"categories":[],"categories_nodes":[],"categories_segments":[],"categories_sizes":[],"default_left":[0,0,0,0,0,0,0,0,0,0,0,0,0,0,0],"id":3,"left_children":[1,3,5,7,9,11,13,-1,-1,-1,-1,-1,-1,-1,-1],"loss_changes":[4.4050583E2,9.820175E1,2.2924484E1,4.4456326E1,1.3177704E1,6.348755E0,1.4830517E1,0E0,0E0,0E0,0E0,0E0,0E0,0E0,0E0],"parents":[2147483647,0,0,1,1,2,2,3,3,4,4,5,5,6,6],"right_children":[2,4,6,8,10,12,14,-1,-1,-1,-1,-1,-1,-1,-1],"split_conditions":[4E0,-2.0187487E-8,-3.0699812E-8,5.8259524E-2,5.5397093E-2,4.4E0,8.9918055E-2,1.7942954E-2,-8.581899E-2,-9.382484E-2,-1.574059E-1,4.158818E-2,1.260397E-1,6.9860056E-2,-7.441223E-2],"split_indices":[388,319,319,99,99,385,238,0,0,0,0,0,0,0,0],"split_type":[0,0,0,0,0,0,0,0,0,0,0,0,0,0,0],"sum_hessian":[5.9295624E2,3.2458963E2,2.683666E2,1.7030122E2,1.5428842E2,1.6037303E2,1.0799358E2,1.024275E2,6.7873726E1,5.913739E1,9.515103E1,1.0785652E1,1.4958737E2,1.0113509E2,6.8584914E0],"tree_param":{"num_deleted":"0","num_feature":"392","num_nodes":"15","size_leaf_vector":"1"}},{"base_weights":[1.9394003E-2,-8.774231E-1,7.2073483E-1,-1.270833E0,-3.251806E-1,1.0113798E0,-4.8490964E-2,-1.4275965E-1,-2.9048378E-2,2.4572361E-2,-6.6539526E-2,1.0553863E-1,-5.2733786E-2,-1.20843194E-1,1.3496746E-2],"categories":[],"categories_nodes":[],"categories_segments":[],"categories_sizes":[],"default_left":[0,0,0,0,0,0,0,0,0,0,0,0,0,0,0],"id":4,"left_children":[1,3,5,7,9,11,13,-1,-1,-1,-1,-1,-1,-1,-1],"loss_changes":[3.6790265E2,5.535681E1,7.3429535E1,2.257071E1,2.1166775E1,1.6689896E1,1.9519632E1,0E0,0E0,0E0,0E0,0E0,0E0,0E0,0E0],"parents":[2147483647,0,0,1,1,2,2,3,3,4,4,5,5,6,6],"right_children":[2,4,6,8,10,12,14,-1,-1,-1,-1,-1,-1,-1,-1],"split_conditions":[3E0,2E0,-2.4691381E-8,2E0,1.3327984E-2,7.941661E-1,-3.672395E-2,-1.4275965E-1,-2.9048378E-2,2.4572361E-2,-6.6539526E-2,1.0553863E-1,-5.2733786E-2,-1.20843194E-1,1.3496746E-2],"split_indices":[388,389,319,387,238,384,11,0,0,0,0,0,0,0,0],"split_type":[0,0,0,0,0,0,0,0,0,0,0,0,0,0,0],"sum_hessian":[5.829192E2,2.5569998E2,3.272192E2,1.4856389E2,1.0713608E2,2.3725847E2,8.996075E1,1.2768942E2,2.0874472E1,4.010866E1,6.702742E1,2.3096704E2,6.2914267E0,1.1522324E1,7.843842E1],"tree_param":{"num_deleted":"0","num_feature":"392","num_nodes":"15","size_leaf_vector":"1"}},{"base_weights":[1.8534586E-2,-6.2065285E-1,8.650964E-1,-2.1336073E-1,-1.1831355E0,3.5067615E-1,1.0406554E0,7.6362E-3,-7.165758E-2,3.283401E-2,-1.24823034E-1,-6.1750334E-2,5.665024E-2,1.22184835E-1,8.29956E-2],"categories":[],"categories_nodes":[],"categories_segments":[],"categories_sizes":[],"default_left":[0,0,0,0,0,0,0,0,0,0,0,0,0,0,0],"id":5,"left_children":[1,3,5,7,9,11,13,-1,-1,-1,-1,-1,-1,-1,-1],"loss_changes":[3.1035156E2,7.46193E1,2.1918137E1,2.7868708E1,1.3892883E1,1.3783379E1,5.9894867E0,0E0,0E0,0E0,0E0,0E0,0E0,0E0,0E0],"parents":[2147483647,0,0,1,1,2,2,3,3,4,4,5,5,6,6],"right_children":[2,4,6,8,10,12,14,-1,-1,-1,-1,-1,-1,-1,-1],"split_conditions":[4E0,8.313284E-1,2E0,-2.0686253E-8,-9.0057015E-2,-1.7270071E-2,-3.529415E-8,7.6362E-3,-7.165758E-2,3.283401E-2,-1.24823034E-1,-6.1750334E-2,5.665024E-2,1.22184835E-1,8.29956E-2],"split_indices":[388,384,387,319,216,11,319,0,0,0,0,0,0,0,0],"split_type":[0,0,0,0,0,0,0,0,0,0,0,0,0,0,0],"sum_hessian":[5.715522E2,3.258155E2,2.4573666E2,1.8977747E2,1.3603802E2,6.3288166E1,1.824485E2,1.20975105E2,6.880236E1,5.4498816E0,1.3058815E2,1.1197216E1,5.209095E1,9.5512535E1,8.693597E1],"tree_param":{"num_deleted":"0","num_feature":"392","num_nodes":"15","size_leaf_vector":"1"}},{"base_weights":[1.8065475E-2,-5.611682E-1,8.1809396E-1,-1.977918E-1,-1.0850883E0,4.6168232E-1,1.0707049E0,1.148707E-3,-8.896056E-2,-1.16235375E-1,1.6444666E-2,5.7599317E-2,-8.275988E-2,-5.489969E-2,1.0907771E-1],"categories":[],"categories_nodes":[],"categories_segments":[],"categories_sizes":[],"default_left":[0,0,0,0,0,0,0,0,0,0,0,0,0,0,0],"id":6,"left_children":[1,3,5,7,9,11,13,-1,-1,-1,-1,-1,-1,-1,-1],"loss_changes":[2.6017508E2,6.1788216E1,2.0733261E1,2.8029291E1,1.3046509E1,1.5148661E1,5.060013E0,0E0,0E0,0E0,0E0,0E0,0E0,0E0,0E0],"parents":[2147483647,0,0,1,1,2,2,3,3,4,4,5,5,6,6],"right_children":[2,4,6,8,10,12,14,-1,-1,-1,-1,-1,-1,-1,-1],"split_conditions":[4E0,8.3176714E-1,5E0,7.5063564E-2,6.754225E-2,8.795166E-2,-1.1494022E-1,1.148707E-3,-8.896056E-2,-1.16235375E-1,1.6444666E-2,5.7599317E-2,-8.275988E-2,-5.489969E-2,1.0907771E-1],"split_indices":[388,384,389,99,0,238,16,0,0,0,0,0,0,0,0],"split_type":[0,0,0,0,0,0,0,0,0,0,0,0,0,0,0],"sum_hessian":[5.5945337E2,3.2467902E2,2.3477434E2,1.9252592E2,1.3215309E2,9.855278E1,1.3622156E2,1.4856676E2,4.3959164E1,1.2452295E2,7.630147E0,9.103467E1,7.5181136E0,1.344898E0,1.3487666E2],"tree_param":{"num_deleted":"0","num_feature":"392","num_nodes":"15","size_leaf_vector":"1"}},{"base_weights":[1.71526E-2,6.4707094E-1,-6.316968E-1,2.506213E-1,1.0504994E0,-3.0238187E-1,-1.0316352E0,4.960619E-2,-7.108964E-2,1.0701668E-1,-6.360876E-2,-7.646143E-2,-3.1722316E-3,-1.105361E-1,3.2678705E-2],"categories":[],"categories_nodes":[],"categories_segments":[],"categories_sizes":[],"default_left":[0,0,0,0,0,0,0,0,0,0,0,0,0,0,0],"id":7,"left_children":[1,3,5,7,9,11,13,-1,-1,-1,-1,-1,-1,-1,-1],"loss_changes":[2.2453807E2,4.4317497E1,3.5331543E1,3.3839764E1,5.252945E0,1.8721117E1,1.2559189E1,0E0,0E0,0E0,0E0,0E0,0E0,0E0,0E0],"parents":[2147483647,0,0,1,1,2,2,3,3,4,4,5,5,6,6],"right_children":[2,4,6,8,10,12,14,-1,-1,-1,-1,-1,-1,-1,-1],"split_conditions":[-2.3516879E-8,5E0,8.311785E-1,7.229297E-2,1.0069036E-1,-1.6190976E-2,7.950578E-2,4.960619E-2,-7.108964E-2,1.0701668E-1,-6.360876E-2,-7.646143E-2,-3.1722316E-3,-1.105361E-1,3.2678705E-2],"split_indices":[319,389,384,99,17,88,139,0,0,0,0,0,0,0,0],"split_type":[0,0,0,0,0,0,0,0,0,0,0,0,0,0,0],"sum_hessian":[5.4736597E2,2.77736E2,2.6962994E2,1.408973E2,1.3683871E2,1.48834E2,1.20795944E2,1.1263081E2,2.826648E1,1.356227E2,1.2160178E0,5.429094E1,9.454306E1,1.14754166E2,6.041776E0],"tree_param":{"num_deleted":"0","num_feature":"392","num_nodes":"15","size_leaf_vector":"1"}},{"base_weights":[1.6335255E-2,5.830564E-1,-6.143567E-1,-6.885815E-1,7.084764E-1,-9.920352E-1,-2.5758755E-1,3.9290834E-2,-1.3648441E-1,4.1957445E-2,1.0076095E-1,1.1430045E-1,-1.0305405E-1,-5.5788187E-3,-1.1201992E-1],"categories":[],"categories_nodes":[],"categories_segments":[],"categories_sizes":[],"default_left":[0,0,0,0,0,0,0,0,0,0,0,0,0,0,0],"id":8,"left_children":[1,3,5,7,9,11,13,-1,-1,-1,-1,-1,-1,-1,-1],"loss_changes":[1.9204228E2,4.56205E1,3.4010727E1,1.9487373E1,2.1879807E1,1.1304794E1,2.29369E1,0E0,0E0,0E0,0E0,0E0,0E0,0E0,0E0],"parents":[2147483647,0,0,1,1,2,2,3,3,4,4,5,5,6,6],"right_children":[2,4,6,8,10,12,14,-1,-1,-1,-1,-1,-1,-1,-1],"split_conditions":[7.527697E-1,2E0,2.625E-1,4.8372213E-2,5E0,-1.2868495E-1,8.923531E-1,3.9290834E-2,-1.3648441E-1,4.1957445E-2,1.0076095E-1,1.1430045E-1,-1.0305405E-1,-5.5788187E-3,-1.1201992E-1],"split_indices":[384,388,391,99,389,17,384,0,0,0,0,0,0,0,0],"split_type":[0,0,0,0,0,0,0,0,0,0,0,0,0,0,0],"sum_hessian":[5.3528955E2,2.8198325E2,2.5330629E2,2.491176E1,2.5707147E2,1.22182434E2,1.3112386E2,9.745539E0,1.5166221E1,1.3199432E2,1.25077156E2,1.6563611E0,1.2052608E2,1.0712719E2,2.3996658E1],"tree_param":{"num_deleted":"0","num_feature":"392","num_nodes":"15","size_leaf_vector":"1"}},{"base_weights":[1.5601202E-2,-4.5372966E-1,6.9061613E-1,-8.958169E-1,-5.095778E-2,1.987563E-1,9.0137005E-1,-1.1844313E-1,-4.7668774E-2,3.7878584E-2,-3.7586775E-2,-2.1539161E-2,7.6022014E-2,-1.1140753E-1,9.230077E-2],"categories":[],"categories_nodes":[],"categories_segments":[],"categories_sizes":[],"default_left":[0,0,0,0,0,0,0,0,0,0,0,0,0,0,0],"id":9,"left_children":[1,3,5,7,9,11,13,-1,-1,-1,-1,-1,-1,-1,-1],"loss_changes":[1.6637141E2,5.511606E1,2.2146614E1,1.7293427E1,2.2924696E1,1.5483989E1,7.5909576E0,0E0,0E0,0E0,0E0,0E0,0E0,0E0,0E0],"parents":[2147483647,0,0,1,1,2,2,3,3,4,4,5,5,6,6],"right_children":[2,4,6,8,10,12,14,-1,-1,-1,-1,-1,-1,-1,-1],"split_conditions":[2E0,2E0,3E0,3.6E0,7.414618E-1,-1.2000544E-3,7E-1,-1.1844313E-1,-4.7668774E-2,3.7878584E-2,-3.7586775E-2,-2.1539161E-2,7.6022014E-2,-1.1140753E-1,9.230077E-2],"split_indices":[387,389,389,385,384,14,385,0,0,0,0,0,0,0,0],"split_type":[0,0,0,0,0,0,0,0,0,0,0,0,0,0,0],"sum_hessian":[5.231643E2,3.0879218E2,2.1437216E2,1.466277E2,1.6216446E2,6.488528E1,1.494869E2,8.575231E1,6.0875393E1,6.974719E1,9.241727E1,3.769615E1,2.7189125E1,1.0515566E0,1.4843533E2],"tree_param":{"num_deleted":"0","num_feature":"392","num_nodes":"15","size_leaf_vector":"1"}},{"base_weights":[1.470192E-2,-3.3139434E-1,8.372804E-1,3.3064924E-2,-7.48703E-1,1.0751104E0,5.3209573E-1,2.1911558E-2,-6.367365E-2,-5.41945E-2,-1.1982427E-1,-7.474792E-3,1.1081219E-1,-1.1726761E-1,6.163996E-2],"categories":[],"categories_nodes":[],"categories_segments":[],"categories_sizes":[],"default_left":[0,0,0,0,0,0,0,0,0,0,0,0,0,0,0],"id":10,"left_children":[1,3,5,7,9,11,13,-1,-1,-1,-1,-1,-1,-1,-1],"loss_changes":[1.4617506E2,5.499476E1,1.0464081E1,2.430117E1,1.5015587E1,3.2894058E0,1.0578375E1,0E0,0E0,0E0,0E0,0E0,0E0,0E0,0E0],"parents":[2147483647,0,0,1,1,2,2,3,3,4,4,5,5,6,6],"right_children":[2,4,6,8,10,12,14,-1,-1,-1,-1,-1,-1,-1,-1],"split_conditions":[3E0,-2.0789308E-8,-2.4227765E-33,7.5063564E-2,3.927705E-2,-8.561265E-2,-8.757349E-2,2.1911558E-2,-6.367365E-2,-5.41945E-2,-1.1982427E-1,-7.474792E-3,1.1081219E-1,-1.1726761E-1,6.163996E-2],"split_indices":[390,319,223,99,250,244,212,0,0,0,0,0,0,0,0],"split_type":[0,0,0,0,0,0,0,0,0,0,0,0,0,0,0],"sum_hessian":[5.114764E2,3.6042593E2,1.5105049E2,1.928873E2,1.6753862E2,8.34754E1,6.7575096E1,1.514828E2,4.1404495E1,1.16268486E2,5.127014E1,2.2943475E0,8.118105E1,2.5758944E0,6.49992E1],"tree_param":{"num_deleted":"0","num_feature":"392","num_nodes":"15","size_leaf_vector":"1"}},{"base_weights":[1.3824547E-2,-3.912342E-1,6.27089E-1,-1.1954438E-1,-8.953069E-1,8.8598293E-1,2.7034983E-1,3.047361E-2,-4.7954276E-2,-9.549664E-2,7.672893E-2,9.1430776E-2,-8.150298E-2,-7.3722005E-2,5.1049054E-2],"categories":[],"categories_nodes":[],"categories_segments":[],"categories_sizes":[],"default_left":[0,0,0,0,0,0,0,0,0,0,0,0,0,0,0],"id":11,"left_children":[1,3,5,7,9,11,13,-1,-1,-1,-1,-1,-1,-1,-1],"loss_changes":[1.24758545E2,4.131805E1,1.8210228E1,3.0342695E1,1.1225151E1,6.3012924E0,2.1050875E1,0E0,0E0,0E0,0E0,0E0,0E0,0E0,0E0],"parents":[2147483647,0,0,1,1,2,2,3,3,4,4,5,5,6,6],"right_children":[2,4,6,8,10,12,14,-1,-1,-1,-1,-1,-1,-1,-1],"split_conditions":[2E0,7.127077E-2,-2.775482E-8,7.75395E-1,5.180715E-2,1.4395232E-1,-5.073841E-2,3.047361E-2,-4.7954276E-2,-9.549664E-2,7.672893E-2,9.1430776E-2,-8.150298E-2,-7.3722005E-2,5.1049054E-2],"split_indices":[387,99,319,384,296,227,364,0,0,0,0,0,0,0,0],"split_type":[0,0,0,0,0,0,0,0,0,0,0,0,0,0,0],"sum_hessian":[5.0024442E2,3.0148007E2,1.9876433E2,1.9669873E2,1.0478136E2,1.1431775E2,8.444659E1,9.035879E1,1.0633994E2,1.0156257E2,3.2187884E0,1.1290025E2,1.4174916E0,1.5854625E1,6.8591965E1],"tree_param":{"num_deleted":"0","num_feature":"392","num_nodes":"15","size_leaf_vector":"1"}},{"base_weights":[1.3180928E-2,-2.8327057E-1,7.724668E-1,-7.236431E-1,5.9349798E-3,1.0264248E0,4.705638E-1,7.330092E-2,-7.955305E-2,-2.7284523E-2,3.3270266E-2,-1.2837231E-2,1.06327094E-1,7.5686775E-2,-8.628395E-3],"categories":[],"categories_nodes":[],"categories_segments":[],"categories_sizes":[],"default_left":[0,0,0,0,0,0,0,0,0,0,0,0,0,0,0],"id":12,"left_children":[1,3,5,7,9,11,13,-1,-1,-1,-1,-1,-1,-1,-1],"loss_changes":[1.1055508E2,4.499637E1,1.0090828E1,1.5247986E1,1.9606028E1,3.2876053E0,1.0404985E1,0E0,0E0,0E0,0E0,0E0,0E0,0E0,0E0],"parents":[2147483647,0,0,1,1,2,2,3,3,4,4,5,5,6,6],"right_children":[2,4,6,8,10,12,14,-1,-1,-1,-1,-1,-1,-1,-1],"split_conditions":[3E0,2E0,-2.4227765E-33,-9.291202E-2,2.2712572E-2,-8.561265E-2,-1.8620333E-2,7.330092E-2,-7.955305E-2,-2.7284523E-2,3.3270266E-2,-1.2837231E-2,1.06327094E-1,7.5686775E-2,-8.628395E-3],"split_indices":[390,388,223,216,206,244,266,0,0,0,0,0,0,0,0],"split_type":[0,0,0,0,0,0,0,0,0,0,0,0,0,0,0],"sum_hessian":[4.891842E2,3.5227197E2,1.3691225E2,1.3904552E2,2.1322646E2,7.305728E1,6.385497E1,6.106804E0,1.329387E2,1.1515098E2,9.807548E1,2.1821523E0,7.087513E1,4.1934895E1,2.1920076E1],"tree_param":{"num_deleted":"0","num_feature":"392","num_nodes":"15","size_leaf_vector":"1"}},{"base_weights":[1.3030206E-2,-2.6883683E-1,7.1703404E-1,1.0466779E-2,-6.638628E-1,-9.5185304E-1,7.5274587E-1,4.7094095E-2,-2.1312473E-2,-3.8758796E-2,-1.0449225E-1,6.210791E-2,-2.0209193E-1,9.461976E-2,3.6115255E-2],"categories":[],"categories_nodes":[],"categories_segments":[],"categories_sizes":[],"default_left":[0,0,0,0,0,0,0,0,0,0,0,0,0,0,0],"id":13,"left_children":[1,3,5,7,9,11,13,-1,-1,-1,-1,-1,-1,-1,-1],"loss_changes":[9.55777E1,3.7959145E1,8.923508E0,2.0948416E1,1.4596012E1,6.8489375E0,9.913689E0,0E0,0E0,0E0,0E0,0E0,0E0,0E0,0E0],"parents":[2147483647,0,0,1,1,2,2,3,3,4,4,5,5,6,6],"right_children":[2,4,6,8,10,12,14,-1,-1,-1,-1,-1,-1,-1,-1],"split_conditions":[5E0,6.253828E-2,-9.984363E-2,-2.3641038E-8,3.315043E-2,-4.1948156E-3,1.0024212E-2,4.7094095E-2,-2.1312473E-2,-3.8758796E-2,-1.0449225E-1,6.210791E-2,-2.0209193E-1,9.461976E-2,3.6115255E-2],"split_indices":[388,99,301,319,250,77,287,0,0,0,0,0,0,0,0],"split_type":[0,0,0,0,0,0,0,0,0,0,0,0,0,0,0],"sum_hessian":[4.796849E2,3.429812E2,1.3670369E2,2.0149055E2,1.4149063E2,2.3265288E0,1.3437717E2,6.549697E1,1.3599359E2,8.319207E1,5.829857E1,1.1109774E0,1.2155513E0,8.899588E1,4.538129E1],"tree_param":{"num_deleted":"0","num_feature":"392","num_nodes":"15","size_leaf_vector":"1"}},{"base_weights":[1.2255669E-2,-3.2248664E-1,5.535682E-1,-6.757997E-1,-1.2229127E-2,9.9692893E-1,3.5850847E-1,-9.628764E-2,-2.8306156E-2,1.1725356E-2,-9.0124145E-2,1.0489559E-1,-4.096838E-2,5.049907E-2,-3.2592896E-2],"categories":[],"categories_nodes":[],"categories_segments":[],"categories_sizes":[],"default_left":[0,0,0,0,0,0,0,0,0,0,0,0,0,0,0],"id":14,"left_children":[1,3,5,7,9,11,13,-1,-1,-1,-1,-1,-1,-1,-1],"loss_changes":[8.550962E1,3.1957827E1,1.5235977E1,1.5097843E1,1.8095993E1,4.4202614E0,1.2875223E1,0E0,0E0,0E0,0E0,0E0,0E0,0E0,0E0],"parents":[2147483647,0,0,1,1,2,2,3,3,4,4,5,5,6,6],"right_children":[2,4,6,8,10,12,14,-1,-1,-1,-1,-1,-1,-1,-1],"split_conditions":[2E0,2E0,-3.529415E-8,3.6E0,5.0213963E-2,6.7906864E-2,6.31229E-2,-9.628764E-2,-2.8306156E-2,1.1725356E-2,-9.0124145E-2,1.0489559E-1,-4.096838E-2,5.049907E-2,-3.2592896E-2],"split_indices":[387,389,319,385,32,190,238,0,0,0,0,0,0,0,0],"split_type":[0,0,0,0,0,0,0,0,0,0,0,0,0,0,0],"sum_hessian":[4.6992166E2,2.9061343E2,1.7930823E2,1.3532767E2,1.5528575E2,5.3528896E1,1.2577933E2,7.734194E1,5.7985725E1,1.363018E2,1.898395E1,5.186482E1,1.6640784E0,1.0382174E2,2.1957586E1],"tree_param":{"num_deleted":"0","num_feature":"392","num_nodes":"15","size_leaf_vector":"1"}},{"base_weights":[1.1362977E-2,-2.2651671E-1,6.872081E-1,-6.034337E-1,1.5075179E-2,9.65834E-1,3.914985E-1,-9.395379E-2,-2.8764833E-2,1.4943927E-2,-6.280284E-2,-2.0621873E-2,1.0093057E-1,5.372153E-2,-6.2531225E-2],"categories":[],"categories_nodes":[],"categories_segments":[],"categories_sizes":[],"default_left":[0,0,0,0,0,0,0,0,0,0,0,0,0,0,0],"id":15,"left_children":[1,3,5,7,9,11,13,-1,-1,-1,-1,-1,-1,-1,-1],"loss_changes":[7.442381E1,3.1191729E1,9.551231E0,1.3929012E1,1.8210348E1,3.3348656E0,9.247522E0,0E0,0E0,0E0,0E0,0E0,0E0,0E0,0E0],"parents":[2147483647,0,0,1,1,2,2,3,3,4,4,5,5,6,6],"right_children":[2,4,6,8,10,12,14,-1,-1,-1,-1,-1,-1,-1,-1],"split_conditions":[3E0,2E0,-2.4227765E-33,2.4166666E-1,5.352424E-2,-8.561265E-2,5.7139102E-2,-9.395379E-2,-2.8764833E-2,1.4943927E-2,-6.280284E-2,-2.0621873E-2,1.0093057E-1,5.372153E-2,-6.2531225E-2],"split_indices":[390,388,223,391,250,244,369,0,0,0,0,0,0,0,0],"split_type":[0,0,0,0,0,0,0,0,0,0,0,0,0,0,0],"sum_hessian":[4.6095325E2,3.4144016E2,1.195131E2,1.3278278E2,2.0865738E2,6.036724E1,5.914586E1,6.3365192E1,6.941759E1,1.732316E2,3.5425774E1,2.025067E0,5.8342175E1,5.214478E1,7.0010805E0],"tree_param":{"num_deleted":"0","num_feature":"392","num_nodes":"15","size_leaf_vector":"1"}},{"base_weights":[1.0609495E-2,-1.720742E-1,7.9346293E-1,-5.5286473E-1,5.9387513E-2,8.515169E-1,-4.7235835E-1,-2.7208296E-3,-7.879863E-2,-4.0281452E-2,2.480714E-2,9.031974E-2,-6.313272E-2,7.735665E-2,-2.0867677E-1],"categories":[],"categories_nodes":[],"categories_segments":[],"categories_sizes":[],"default_left":[0,0,0,0,0,0,0,0,0,0,0,0,0,0,0],"id":16,"left_children":[1,3,5,7,9,11,13,-1,-1,-1,-1,-1,-1,-1,-1],"loss_changes":[6.500337E1,3.2518265E1,6.7216606E0,1.7211876E1,2.0170193E1,6.8987236E0,1.0493166E1,0E0,0E0,0E0,0E0,0E0,0E0,0E0,0E0],"parents":[2147483647,0,0,1,1,2,2,3,3,4,4,5,5,6,6],"right_children":[2,4,6,8,10,12,14,-1,-1,-1,-1,-1,-1,-1,-1],"split_conditions":[5E0,1E0,1.138173E-1,-5.6806332E-3,1E0,8.179548E-2,1.7841745E-2,-2.7208296E-3,-7.879863E-2,-4.0281452E-2,2.480714E-2,9.031974E-2,-6.313272E-2,7.735665E-2,-2.0867677E-1],"split_indices":[389,387,64,63,390,17,58,0,0,0,0,0,0,0,0],"split_type":[0,0,0,0,0,0,0,0,0,0,0,0,0,0,0],"sum_hessian":[4.5256802E2,3.675728E2,8.49952E1,1.384358E2,2.2913702E2,8.158098E1,3.4142232E0,4.312897E1,9.530683E1,6.609505E1,1.6304198E2,7.921119E1,2.3697853E0,2.220998E0,1.1932253E0],"tree_param":{"num_deleted":"0","num_feature":"392","num_nodes":"15","size_leaf_vector":"1"}},{"base_weights":[9.747824E-3,2.7164957E-1,-4.7674423E-1,8.387163E-2,7.582284E-1,-2.9419506E-1,-9.1416687E-1,-2.4874013E-2,3.238021E-2,9.250964E-2,2.3951888E-2,-8.84283E-2,-9.116194E-3,-1.0657807E-1,3.670941E-2],"categories":[],"categories_nodes":[],"categories_segments":[],"categories_sizes":[],"default_left":[0,0,0,0,0,0,0,0,0,0,0,0,0,0,0],"id":17,"left_children":[1,3,5,7,9,11,13,-1,-1,-1,-1,-1,-1,-1,-1],"loss_changes":[5.6889526E1,2.6453512E1,1.2208561E1,1.6881746E1,6.762535E0,1.33047285E1,9.236866E0,0E0,0E0,0E0,0E0,0E0,0E0,0E0,0E0],"parents":[2147483647,0,0,1,1,2,2,3,3,4,4,5,5,6,6],"right_children":[2,4,6,8,10,12,14,-1,-1,-1,-1,-1,-1,-1,-1],"split_conditions":[-2.0789308E-8,5E0,3.927705E-2,-7.0006857E-3,3.4489855E-2,-3.308168E-2,4.857554E-2,-2.4874013E-2,3.238021E-2,9.250964E-2,2.3951888E-2,-8.84283E-2,-9.116194E-3,-1.0657807E-1,3.670941E-2],"split_indices":[319,389,250,167,38,5,336,0,0,0,0,0,0,0,0],"split_type":[0,0,0,0,0,0,0,0,0,0,0,0,0,0,0],"sum_hessian":[4.444802E2,2.8922064E2,1.5525957E2,2.0953165E2,7.968898E1,1.10723854E2,4.4535717E1,8.779128E1,1.21740364E2,5.9700096E1,1.9988884E1,2.7485537E1,8.323831E1,3.9973736E1,4.5619802E0],"tree_param":{"num_deleted":"0","num_feature":"392","num_nodes":"15","size_leaf_vector":"1"}},{"base_weights":[9.065619E-3,-2.487074E-1,4.5859134E-1,-5.5086084E-2,-6.8165934E-1,2.5211516E-1,8.3204097E-1,-5.0288327E-2,1.6918205E-2,-2.880547E-2,-9.7200505E-2,3.9027255E-2,-8.282589E-2,-6.001935E-2,8.8748075E-2],"categories":[],"categories_nodes":[],"categories_segments":[],"categories_sizes":[],"default_left":[0,0,0,0,0,0,0,0,0,0,0,0,0,0,0],"id":18,"left_children":[1,3,5,7,9,11,13,-1,-1,-1,-1,-1,-1,-1,-1],"loss_changes":[5.0879025E1,2.3357653E1,1.212878E1,1.9560812E1,9.565739E0,1.5917886E1,5.0218544E0,0E0,0E0,0E0,0E0,0E0,0E0,0E0,0E0],"parents":[2147483647,0,0,1,1,2,2,3,3,4,4,5,5,6,6],"right_children":[2,4,6,8,10,12,14,-1,-1,-1,-1,-1,-1,-1,-1],"split_conditions":[2E0,7.5063564E-2,4.779965E-34,3.2E0,-4.9424265E-4,4.2971775E-2,1E0,-5.0288327E-2,1.6918205E-2,-2.880547E-2,-9.7200505E-2,3.9027255E-2,-8.282589E-2,-6.001935E-2,8.8748075E-2],"split_indices":[387,99,127,385,63,279,390,0,0,0,0,0,0,0,0],"split_type":[0,0,0,0,0,0,0,0,0,0,0,0,0,0,0],"sum_hessian":[4.370989E2,2.7808337E2,1.5901553E2,1.9293E2,8.515338E1,1.0347851E2,5.5537025E1,6.3966156E1,1.2896384E2,3.6994373E1,4.8159004E1,9.231242E1,1.116608E1,1.7034672E0,5.3833557E1],"tree_param":{"num_deleted":"0","num_feature":"392","num_nodes":"15","size_leaf_vector":"1"}},{"base_weights":[8.154678E-3,-1.7227408E-1,5.8539367E-1,-6.519714E-2,-8.513559E-1,8.9289224E-1,3.079866E-1,1.7609194E-2,-3.263397E-2,7.214243E-2,-9.7456284E-2,-3.313395E-2,9.4733655E-2,6.1755884E-2,-2.4268541E-2],"categories":[],"categories_nodes":[],"categories_segments":[],"categories_sizes":[],"default_left":[0,0,0,0,0,0,0,0,0,0,0,0,0,0,0],"id":19,"left_children":[1,3,5,7,9,11,13,-1,-1,-1,-1,-1,-1,-1,-1],"loss_changes":[4.495098E1,2.3856655E1,8.492016E0,1.8024666E1,9.366402E0,3.5277138E0,9.621037E0,0E0,0E0,0E0,0E0,0E0,0E0,0E0,0E0],"parents":[2147483647,0,0,1,1,2,2,3,3,4,4,5,5,6,6],"right_children":[2,4,6,8,10,12,14,-1,-1,-1,-1,-1,-1,-1,-1],"split_conditions":[3E0,8.923531E-1,-2.4227765E-33,4.6515726E-3,-6.93428E-2,-8.561265E-2,-1.8620333E-2,1.7609194E-2,-3.263397E-2,7.214243E-2,-9.7456284E-2,-3.313395E-2,9.4733655E-2,6.1755884E-2,-2.4268541E-2],"split_indices":[390,384,223,63,281,244,266,0,0,0,0,0,0,0,0],"split_type":[0,0,0,0,0,0,0,0,0,0,0,0,0,0,0],"sum_hessian":[4.2962802E2,3.2785217E2,1.01775856E2,2.8414453E2,4.370762E1,4.7217632E1,5.4558228E1,1.4785551E2,1.3628903E2,2.8224642E0,4.0885155E1,1.7939152E0,4.5423717E1,3.4846848E1,1.9711378E1],"tree_param":{"num_deleted":"0","num_feature":"392","num_nodes":"15","size_leaf_vector":"1"}},{"base_weights":[7.855578E-3,2.7049753E-1,-3.4266567E-1,4.145124E-1,-3.2320407E-1,-4.0914148E-1,8.883223E-1,4.867808E-2,-6.830359E-2,6.2322438E-2,-6.958376E-2,-5.6265213E-2,1.03236735E-2,-8.584763E-2,1.2842773E-1],"categories":[],"categories_nodes":[],"categories_segments":[],"categories_sizes":[],"default_left":[0,0,0,0,0,0,0,0,0,0,0,0,0,0,0],"id":20,"left_children":[1,3,5,7,9,11,13,-1,-1,-1,-1,-1,-1,-1,-1],"loss_changes":[3.912375E1,2.0904419E1,1.52601795E1,1.5874008E1,1.7356504E1,1.3696995E1,7.771677E0,0E0,0E0,0E0,0E0,0E0,0E0,0E0,0E0],"parents":[2147483647,0,0,1,1,2,2,3,3,4,4,5,5,6,6],"right_children":[2,4,6,8,10,12,14,-1,-1,-1,-1,-1,-1,-1,-1],"split_conditions":[7.8947234E-1,6.883945E-2,7.6022565E-2,9.337473E-2,-4.5649096E-2,1.8222442E-2,-4.41923E-2,4.867808E-2,-6.830359E-2,6.2322438E-2,-6.958376E-2,-5.6265213E-2,1.03236735E-2,-8.584763E-2,1.2842773E-1],"split_indices":[384,99,119,238,276,18,262,0,0,0,0,0,0,0,0],"split_type":[0,0,0,0,0,0,0,0,0,0,0,0,0,0,0],"sum_hessian":[4.2296677E2,2.4192395E2,1.8104282E2,1.9493916E2,4.6984795E1,1.7240048E2,8.642337E0,1.834184E2,1.1520757E1,1.3083175E1,3.3901623E1,1.3258064E2,3.981984E1,1.3811454E0,7.261192E0],"tree_param":{"num_deleted":"0","num_feature":"392","num_nodes":"15","size_leaf_vector":"1"}},{"base_weights":[7.2956663E-3,-1.2205306E-1,6.736178E-1,9.5396586E-2,-3.9809483E-1,7.932184E-1,-1.9235848E-1,1.8057195E-2,-7.9539336E-2,-1.24578765E-2,-7.625477E-2,-7.395049E-2,8.799792E-2,-1.862983E-1,4.3405186E-2],"categories":[],"categories_nodes":[],"categories_segments":[],"categories_sizes":[],"default_left":[0,0,0,0,0,0,0,0,0,0,0,0,0,0,0],"id":21,"left_children":[1,3,5,7,9,11,13,-1,-1,-1,-1,-1,-1,-1,-1],"loss_changes":[3.6102673E1,2.109691E1,7.2052E0,1.5094582E1,1.5334394E1,8.633049E0,1.0298402E1,0E0,0E0,0E0,0E0,0E0,0E0,0E0,0E0],"parents":[2147483647,0,0,1,1,2,2,3,3,4,4,5,5,6,6],"right_children":[2,4,6,8,10,12,14,-1,-1,-1,-1,-1,-1,-1,-1],"split_conditions":[5E0,5.636306E-2,5.8861684E-2,9.337473E-2,3.0508693E-2,-1.0814354E-1,2.625E-1,1.8057195E-2,-7.9539336E-2,-1.24578765E-2,-7.625477E-2,-7.395049E-2,8.799792E-2,-1.862983E-1,4.3405186E-2],"split_indices":[389,99,369,238,250,239,391,0,0,0,0,0,0,0,0],"split_type":[0,0,0,0,0,0,0,0,0,0,0,0,0,0,0],"sum_hessian":[4.1692926E2,3.4983493E2,6.709433E1,1.9605144E2,1.537835E2,5.9026196E1,8.068134E0,1.7966916E2,1.6382282E1,8.861852E1,6.516498E1,2.7591588E0,5.6267036E1,1.6618774E0,6.406257E0],"tree_param":{"num_deleted":"0","num_feature":"392","num_nodes":"15","size_leaf_vector":"1"}},{"base_weights":[6.371946E-3,2.148702E-1,-3.7316227E-1,4.229494E-1,-8.9984104E-2,1.9893919E-1,-5.027831E-1,5.7745464E-2,-8.5749915E-3,-4.76291E-5,-1.6623606E-1,-3.0145008E-2,1.1495169E-1,4.808716E-2,-5.86927E-2],"categories":[],"categories_nodes":[],"categories_segments":[],"categories_sizes":[],"default_left":[0,0,0,0,0,0,0,0,0,0,0,0,0,0,0],"id":22,"left_children":[1,3,5,7,9,11,13,-1,-1,-1,-1,-1,-1,-1,-1],"loss_changes":[3.270454E1,1.6957802E1,1.0967331E1,1.2523022E1,1.5343781E1,1.3563278E1,1.0194574E1,0E0,0E0,0E0,0E0,0E0,0E0,0E0,0E0],"parents":[2147483647,0,0,1,1,2,2,3,3,4,4,5,5,6,6],"right_children":[2,4,6,8,10,12,14,-1,-1,-1,-1,-1,-1,-1,-1],"split_conditions":[-2.0789308E-8,9.264756E-3,-1.1797688E-2,2.6283346E-2,1.138173E-1,3.328568E-2,-6.963349E-2,5.7745464E-2,-8.5749915E-3,-4.76291E-5,-1.6623606E-1,-3.0145008E-2,1.1495169E-1,4.808716E-2,-5.86927E-2],"split_indices":[319,287,238,279,64,336,236,0,0,0,0,0,0,0,0],"split_type":[0,0,0,0,0,0,0,0,0,0,0,0,0,0,0],"sum_hessian":[4.1127652E2,2.6573053E2,1.45546E2,1.577027E2,1.08027824E2,2.678621E1,1.1875979E2,1.20859406E2,3.6843296E1,1.0315595E2,4.8718686E0,1.7995932E1,8.790278E0,8.986881E0,1.0977291E2],"tree_param":{"num_deleted":"0","num_feature":"392","num_nodes":"15","size_leaf_vector":"1"}},{"base_weights":[5.778674E-3,-3.3676443E-1,2.2303903E-1,2.8184447E-1,-5.4190546E-1,-4.3383104E-1,3.348886E-1,-3.6711965E-2,6.2466618E-2,-2.1757437E-2,-8.2483366E-2,5.5912104E-2,-8.082262E-2,5.534921E-2,-6.898881E-3],"categories":[],"categories_nodes":[],"categories_segments":[],"categories_sizes":[],"default_left":[0,0,0,0,0,0,0,0,0,0,0,0,0,0,0],"id":23,"left_children":[1,3,5,7,9,11,13,-1,-1,-1,-1,-1,-1,-1,-1],"loss_changes":[3.0386984E1,2.026328E1,1.8500416E1,9.155823E0,1.0772388E1,1.4127369E1,1.8935862E1,0E0,0E0,0E0,0E0,0E0,0E0,0E0,0E0],"parents":[2147483647,0,0,1,1,2,2,3,3,4,4,5,5,6,6],"right_children":[2,4,6,8,10,12,14,-1,-1,-1,-1,-1,-1,-1,-1],"split_conditions":[3.8E0,-4.348057E-3,-6.325184E-2,-9.938191E-3,-2.1750967E-3,6.5550846E-1,1.4749155E-2,-3.6711965E-2,6.2466618E-2,-2.1757437E-2,-8.2483366E-2,5.5912104E-2,-8.082262E-2,5.534921E-2,-6.898881E-3],"split_indices":[385,238,94,106,285,384,63,0,0,0,0,0,0,0,0],"split_type":[0,0,0,0,0,0,0,0,0,0,0,0,0,0,0],"sum_hessian":[4.0630243E2,1.5747296E2,2.4882947E2,3.912287E1,1.1835009E2,3.5786114E1,2.1304337E2,1.3498753E1,2.5624119E1,5.596469E1,6.23854E1,9.663546E0,2.612257E1,1.3798622E2,7.505714E1],"tree_param":{"num_deleted":"0","num_feature":"392","num_nodes":"15","size_leaf_vector":"1"}},{"base_weights":[5.248527E-3,-1.865215E-1,3.6070558E-1,2.503918E-1,-3.4232885E-1,6.3146013E-1,6.436191E-2,-2.5061054E-2,6.6856556E-2,5.9852075E-2,-4.2462397E-2,-2.4643913E-2,8.004414E-2,-9.280111E-2,2.654107E-2],"categories":[],"categories_nodes":[],"categories_segments":[],"categories_sizes":[],"default_left":[0,0,0,0,0,0,0,0,0,0,0,0,0,0,0],"id":24,"left_children":[1,3,5,7,9,11,13,-1,-1,-1,-1,-1,-1,-1,-1],"loss_changes":[2.7501799E1,1.7926994E1,1.1303257E1,1.4722231E1,1.5245153E1,1.1140451E1,1.3935897E1,0E0,0E0,0E0,0E0,0E0,0E0,0E0,0E0],"parents":[2147483647,0,0,1,1,2,2,3,3,4,4,5,5,6,6],"right_children":[2,4,6,8,10,12,14,-1,-1,-1,-1,-1,-1,-1,-1],"split_conditions":[2E0,-2.8669609E-2,-5.397514E-3,1.0656418E-2,-6.507295E-2,-4.4043075E-2,-3.828827E-2,-2.5061054E-2,6.6856556E-2,5.9852075E-2,-4.2462397E-2,-2.4643913E-2,8.004414E-2,-9.280111E-2,2.654107E-2],"split_indices":[387,285,137,115,376,364,84,0,0,0,0,0,0,0,0],"split_type":[0,0,0,0,0,0,0,0,0,0,0,0,0,0,0],"sum_hessian":[4.0146628E2,2.6108533E2,1.4038097E2,6.847142E1,1.926139E2,7.2766754E1,6.761421E1,3.1332968E1,3.7138454E1,1.4988065E1,1.7762584E2,1.1671594E1,6.1095158E1,1.078143E1,5.6832783E1],"tree_param":{"num_deleted":"0","num_feature":"392","num_nodes":"15","size_leaf_vector":"1"}},{"base_weights":[5.236836E-3,-1.3082589E-1,4.8566157E-1,-3.5095504E-1,1.6189554E-1,6.0960335E-1,-2.4953355E-1,8.196541E-3,-5.4550428E-2,-1.940767E-2,4.305151E-2,-9.361431E-2,6.714405E-2,3.6104843E-2,-1.6897179E-1],"categories":[],"categories_nodes":[],"categories_segments":[],"categories_sizes":[],"default_left":[0,0,0,0,0,0,0,0,0,0,0,0,0,0,0],"id":25,"left_children":[1,3,5,7,9,11,13,-1,-1,-1,-1,-1,-1,-1,-1],"loss_changes":[2.613064E1,2.0132069E1,8.191254E0,1.5048485E1,1.2936007E1,7.8726654E0,1.2425986E1,0E0,0E0,0E0,0E0,0E0,0E0,0E0,0E0],"parents":[2147483647,0,0,1,1,2,2,3,3,4,4,5,5,6,6],"right_children":[2,4,6,8,10,12,14,-1,-1,-1,-1,-1,-1,-1,-1],"split_conditions":[3E0,2.4199825E-2,4.9762737E-2,-2.3797188E-2,-2.5407337E-2,-9.764662E-2,-2.588617E-8,8.196541E-3,-5.4550428E-2,-1.940767E-2,4.305151E-2,-9.361431E-2,6.714405E-2,3.6104843E-2,-1.6897179E-1],"split_indices":[390,206,243,250,18,257,319,0,0,0,0,0,0,0,0],"split_type":[0,0,0,0,0,0,0,0,0,0,0,0,0,0,0],"sum_hessian":[3.977753E2,3.105508E2,8.722447E1,1.7714058E2,1.3341023E2,7.4787384E1,1.2437093E1,5.51025E1,1.2203808E2,5.749538E1,7.5914856E1,2.3328996E0,7.245448E1,9.260364E0,3.176729E0],"tree_param":{"num_deleted":"0","num_feature":"392","num_nodes":"15","size_leaf_vector":"1"}},{"base_weights":[4.6329605E-3,-9.650311E-2,5.890235E-1,-6.6553944E-1,-3.7353474E-3,8.029172E-1,9.799573E-3,3.896911E-2,-8.4414504E-2,4.1848337E-3,-1.2682395E-1,6.4170064E-4,9.436895E-2,6.6569254E-2,-1.089942E-1],"categories":[],"categories_nodes":[],"categories_segments":[],"categories_sizes":[],"default_left":[0,0,0,0,0,0,0,0,0,0,0,0,0,0,0],"id":26,"left_children":[1,3,5,7,9,11,13,-1,-1,-1,-1,-1,-1,-1,-1],"loss_changes":[2.336902E1,1.7792511E1,7.2189884E0,9.233654E0,1.6818142E1,4.7691345E0,1.2802996E1,0E0,0E0,0E0,0E0,0E0,0E0,0E0,0E0],"parents":[2147483647,0,0,1,1,2,2,3,3,4,4,5,5,6,6],"right_children":[2,4,6,8,10,12,14,-1,-1,-1,-1,-1,-1,-1,-1],"split_conditions":[5E0,-5.796631E-2,3.4489855E-2,-4.724995E-2,1.0625296E-1,-3.3382025E-2,2.4524722E-2,3.896911E-2,-8.4414504E-2,4.1848337E-3,-1.2682395E-1,6.4170064E-4,9.436895E-2,6.6569254E-2,-1.089942E-1],"split_indices":[389,364,38,3,287,245,130,0,0,0,0,0,0,0,0],"split_type":[0,0,0,0,0,0,0,0,0,0,0,0,0,0,0],"sum_hessian":[3.9343338E2,3.3610165E2,5.7331722E1,4.624726E1,2.898544E2,4.158804E1,1.574368E1,6.5235023E0,3.9723755E1,2.8070236E2,9.15204E0,6.4032946E0,3.5184746E1,1.0109181E1,5.6344986E0],"tree_param":{"num_deleted":"0","num_feature":"392","num_nodes":"15","size_leaf_vector":"1"}},{"base_weights":[4.26523E-3,5.64556E-2,-1.0251622E0,-2.6356375E-1,2.1199887E-1,-1.1159154E0,2.7944073E-2,7.3483884E-2,-3.7917E-2,3.7313912E-2,-2.4055956E-2,-1.4536345E-2,-1.1651724E-1],"categories":[],"categories_nodes":[],"categories_segments":[],"categories_sizes":[],"default_left":[0,0,0,0,0,0,0,0,0,0,0,0,0],"id":27,"left_children":[1,3,5,7,9,11,-1,-1,-1,-1,-1,-1,-1],"loss_changes":[2.1070791E1,1.8631947E1,2.552393E0,1.4418331E1,1.8443775E1,6.860523E-1,0E0,0E0,0E0,0E0,0E0,0E0,0E0],"parents":[2147483647,0,0,1,1,2,2,3,3,4,4,5,5],"right_children":[2,4,6,8,10,12,-1,-1,-1,-1,-1,-1,-1],"split_conditions":[9.209243E-1,2.2222222E-1,7.617904E-2,-6.611728E-2,5.333848E-2,-4.901012E-2,2.7944073E-2,7.3483884E-2,-3.7917E-2,3.7313912E-2,-2.4055956E-2,-1.4536345E-2,-1.1651724E-1],"split_indices":[384,391,102,60,238,348,0,0,0,0,0,0,0],"split_type":[0,0,0,0,0,0,0,0,0,0,0,0,0],"sum_hessian":[3.901111E2,3.7218695E2,1.792414E1,1.2150483E2,2.5068213E2,1.6893589E1,1.0305517E0,1.2053302E1,1.0945153E2,1.8498936E2,6.5692764E1,1.0068018E0,1.5886788E1],"tree_param":{"num_deleted":"0","num_feature":"392","num_nodes":"13","size_leaf_vector":"1"}},{"base_weights":[3.6637315E-3,-7.260113E-2,6.783168E-1,-3.3841127E-1,1.0170469E-1,-5.4134494E-1,7.8420013E-1,-1.2274215E-3,-6.686667E-2,1.936808E-2,-7.297078E-2,6.731949E-2,-1.8796544E-1,-8.13623E-2,8.5806966E-2],"categories":[],"categories_nodes":[],"categories_segments":[],"categories_sizes":[],"default_left":[0,0,0,0,0,0,0,0,0,0,0,0,0,0,0],"id":28,"left_children":[1,3,5,7,9,11,13,-1,-1,-1,-1,-1,-1,-1,-1],"loss_changes":[1.9982067E1,1.6202587E1,5.5181713E0,1.4902489E1,1.6316732E1,7.3480873E0,5.0298634E0,0E0,0E0,0E0,0E0,0E0,0E0,0E0,0E0],"parents":[2147483647,0,0,1,1,2,2,3,3,4,4,5,5,6,6],"right_children":[2,4,6,8,10,12,14,-1,-1,-1,-1,-1,-1,-1,-1],"split_conditions":[8E0,4.827174E-3,-4.3176997E-2,4.6515726E-3,8.9918055E-2,3.0555211E-2,-8.295105E-2,-1.2274215E-3,-6.686667E-2,1.936808E-2,-7.297078E-2,6.731949E-2,-1.8796544E-1,-8.13623E-2,8.5806966E-2],"split_indices":[388,11,329,63,238,345,353,0,0,0,0,0,0,0,0],"split_type":[0,0,0,0,0,0,0,0,0,0,0,0,0,0,0],"sum_hessian":[3.8640372E2,3.4796146E2,3.844225E1,1.3743561E2,2.1052585E2,2.7422175E0,3.570003E1,6.96708E1,6.776481E1,1.9024661E2,2.0279242E1,1.6981223E0,1.0440953E0,1.1350117E0,3.456502E1],"tree_param":{"num_deleted":"0","num_feature":"392","num_nodes":"15","size_leaf_vector":"1"}},{"base_weights":[2.9882698E-3,1.2575327E-1,-3.8667524E-1,-1.814378E-1,2.8567624E-1,-1.4241874E-1,-8.1079805E-1,2.880843E-3,-9.203795E-2,5.647541E-2,2.81734E-3,7.910145E-2,-3.833508E-2,1.7016173E-3,-1.0585383E-1],"categories":[],"categories_nodes":[],"categories_segments":[],"categories_sizes":[],"default_left":[0,0,0,0,0,0,0,0,0,0,0,0,0,0,0],"id":29,"left_children":[1,3,5,7,9,11,13,-1,-1,-1,-1,-1,-1,-1,-1],"loss_changes":[1.8411898E1,1.4429317E1,9.4371395E0,1.5687987E1,1.3843094E1,1.3735293E1,6.8852463E0,0E0,0E0,0E0,0E0,0E0,0E0,0E0,0E0],"parents":[2147483647,0,0,1,1,2,2,3,3,4,4,5,5,6,6],"right_children":[2,4,6,8,10,12,14,-1,-1,-1,-1,-1,-1,-1,-1],"split_conditions":[7.602973E-2,-1.6552677E-2,-6.1496576E-5,4.686533E-2,-2.404427E-2,-3.825151E-2,-2.5421236E-2,2.880843E-3,-9.203795E-2,5.647541E-2,2.81734E-3,7.910145E-2,-3.833508E-2,1.7016173E-3,-1.0585383E-1],"split_indices":[99,5,3,287,315,22,212,0,0,0,0,0,0,0,0],"split_type":[0,0,0,0,0,0,0,0,0,0,0,0,0,0,0],"sum_hessian":[3.828714E2,2.9166006E2,9.121135E1,9.980781E1,1.9185225E2,5.872617E1,3.248518E1,7.844841E1,2.1359398E1,9.149649E1,1.0035575E2,1.1579817E1,4.7146355E1,7.6970615E0,2.4788118E1],"tree_param":{"num_deleted":"0","num_feature":"392","num_nodes":"15","size_leaf_vector":"1"}},{"base_weights":[2.4291761E-3,4.8539788E-2,-9.7552496E-1,5.0516474E-1,-4.388084E-2,-1.9689423E-3,-1.1283883E-1,-7.341656E-2,6.0731452E-2,3.8497757E-2,-1.737974E-2,7.794534E-2,-6.716927E-2],"categories":[],"categories_nodes":[],"categories_segments":[],"categories_sizes":[],"default_left":[0,0,0,0,0,0,0,0,0,0,0,0,0],"id":30,"left_children":[1,3,5,7,9,11,-1,-1,-1,-1,-1,-1,-1],"loss_changes":[1.7209076E1,1.5400103E1,2.5550632E0,8.22122E0,1.7003096E1,2.2681966E0,0E0,0E0,0E0,0E0,0E0,0E0,0E0],"parents":[2147483647,0,0,1,1,2,2,3,3,4,4,5,5],"right_children":[2,4,6,8,10,12,-1,-1,-1,-1,-1,-1,-1],"split_conditions":[9.209243E-1,-4.2147547E-2,-1.6635546E-2,-7.234532E-2,1.1933122E-2,-6.4568415E-2,-1.1283883E-1,-7.341656E-2,6.0731452E-2,3.8497757E-2,-1.737974E-2,7.794534E-2,-6.716927E-2],"split_indices":[384,187,273,97,99,98,0,0,0,0,0,0,0],"split_type":[0,0,0,0,0,0,0,0,0,0,0,0,0],"sum_hessian":[3.7957614E2,3.6339252E2,1.6183619E1,6.041797E1,3.0297455E2,2.3336895E0,1.3849928E1,4.129519E0,5.6288452E1,6.998587E1,2.3298868E2,1.001414E0,1.3322756E0],"tree_param":{"num_deleted":"0","num_feature":"392","num_nodes":"13","size_leaf_vector":"1"}},{"base_weights":[1.9370688E-3,-5.724454E-2,7.169018E-1,-1.4254466E-2,-9.452585E-1,-4.9174407E-1,8.6814207E-1,-2.5829984E-2,1.4304111E-2,4.5341334E-5,-1.10285304E-1,-1.892728E-1,6.8592824E-2,1.0136075E-1,9.123018E-4],"categories":[],"categories_nodes":[],"categories_segments":[],"categories_sizes":[],"default_left":[0,0,0,0,0,0,0,0,0,0,0,0,0,0,0],"id":31,"left_children":[1,3,5,7,9,11,13,-1,-1,-1,-1,-1,-1,-1,-1],"loss_changes":[1.6021006E1,1.3337274E1,5.7179985E0,1.2880724E1,2.4049864E0,7.6628704E0,3.2506237E0,0E0,0E0,0E0,0E0,0E0,0E0,0E0,0E0],"parents":[2147483647,0,0,1,1,2,2,3,3,4,4,5,5,6,6],"right_children":[2,4,6,8,10,12,14,-1,-1,-1,-1,-1,-1,-1,-1],"split_conditions":[9E0,9.209243E-1,-6.3883305E-2,4.827174E-3,-1.6635546E-2,-4.1121524E-3,4.081542E-2,-2.5829984E-2,1.4304111E-2,4.5341334E-5,-1.10285304E-1,-1.892728E-1,6.8592824E-2,1.0136075E-1,9.123018E-4],"split_indices":[388,384,369,11,273,111,252,0,0,0,0,0,0,0,0],"split_type":[0,0,0,0,0,0,0,0,0,0,0,0,0,0,0],"sum_hessian":[3.7666306E2,3.4871768E2,2.794537E1,3.335844E2,1.5133265E1,2.8575642E0,2.5087807E1,1.3048843E2,2.03096E2,2.3040395E0,1.2829225E1,1.0277518E0,1.8298125E0,2.130079E1,3.7870152E0],"tree_param":{"num_deleted":"0","num_feature":"392","num_nodes":"15","size_leaf_vector":"1"}},{"base_weights":[1.5540757E-3,-2.7867332E-1,1.4317659E-1,-4.9274182E-1,1.1221626E-1,4.8847133E-1,-1.937276E-2,6.046183E-2,-6.193915E-2,5.0227445E-2,-4.983948E-2,-8.323016E-2,6.1391514E-2,-2.2500576E-2,4.138578E-2],"categories":[],"categories_nodes":[],"categories_segments":[],"categories_sizes":[],"default_left":[0,0,0,0,0,0,0,0,0,0,0,0,0,0,0],"id":32,"left_children":[1,3,5,7,9,11,13,-1,-1,-1,-1,-1,-1,-1,-1],"loss_changes":[1.4900766E1,1.0602887E1,1.4007944E1,1.17198105E1,1.1067837E1,1.374357E1,1.5285773E1,0E0,0E0,0E0,0E0,0E0,0E0,0E0,0E0],"parents":[2147483647,0,0,1,1,2,2,3,3,4,4,5,5,6,6],"right_children":[2,4,6,8,10,12,14,-1,-1,-1,-1,-1,-1,-1,-1],"split_conditions":[1E0,1.3641714E-2,-1.1442013E-2,-6.305044E-2,3.026078E-3,-8.293081E-2,6.4807194E-3,6.046183E-2,-6.193915E-2,5.0227445E-2,-4.983948E-2,-8.323016E-2,6.1391514E-2,-2.2500576E-2,4.138578E-2],"split_indices":[387,29,156,3,141,88,18,0,0,0,0,0,0,0,0],"split_type":[0,0,0,0,0,0,0,0,0,0,0,0,0,0,0],"sum_hessian":[3.7345642E2,1.2505107E2,2.4840533E2,8.0632545E1,4.4418533E1,7.886712E1,1.6953822E2,7.9526467E0,7.267989E1,2.7212572E1,1.720596E1,6.3521147E0,7.251501E1,1.1529436E2,5.4243862E1],"tree_param":{"num_deleted":"0","num_feature":"392","num_nodes":"15","size_leaf_vector":"1"}},{"base_weights":[1.4596572E-3,-2.4279168E-1,1.5958408E-1,2.7321124E-1,-4.1726258E-1,5.441454E-1,4.903565E-3,-6.392583E-2,4.9305525E-2,-4.931073E-2,6.0375758E-2,9.022837E-2,-6.069309E-3,-7.062834E-2,1.5327825E-2],"categories":[],"categories_nodes":[],"categories_segments":[],"categories_sizes":[],"default_left":[0,0,0,0,0,0,0,0,0,0,0,0,0,0,0],"id":33,"left_children":[1,3,5,7,9,11,13,-1,-1,-1,-1,-1,-1,-1,-1],"loss_changes":[1.4421592E1,1.3324728E1,1.3479911E1,7.874485E0,8.820477E0,1.4136404E1,1.7271534E1,0E0,0E0,0E0,0E0,0E0,0E0,0E0,0E0],"parents":[2147483647,0,0,1,1,2,2,3,3,4,4,5,5,6,6],"right_children":[2,4,6,8,10,12,14,-1,-1,-1,-1,-1,-1,-1,-1],"split_conditions":[3.8E0,-4.348057E-3,-2.4689695E-2,-2.6870346E-2,6.7706324E-2,2.0979015E-2,-6.210754E-2,-6.392583E-2,4.9305525E-2,-4.931073E-2,6.0375758E-2,9.022837E-2,-6.069309E-3,-7.062834E-2,1.5327825E-2],"split_indices":[385,238,102,309,367,172,94,0,0,0,0,0,0,0,0],"split_type":[0,0,0,0,0,0,0,0,0,0,0,0,0,0,0],"sum_hessian":[3.713994E2,1.4574101E2,2.256584E2,3.668325E1,1.09057755E2,6.400745E1,1.6165096E2,6.751821E0,2.993143E1,1.0199805E2,7.059704E0,3.989371E1,2.4113731E1,2.7254591E1,1.3439636E2],"tree_param":{"num_deleted":"0","num_feature":"392","num_nodes":"15","size_leaf_vector":"1"}},{"base_weights":[1.5347893E-3,-5.0670564E-2,6.804763E-1,-2.1713342E-1,1.5813397E-1,8.130148E-1,-6.869244E-2,6.959843E-3,-4.7952015E-2,1.0994334E-3,6.7679875E-2,3.8370122E-3,1.0024654E-1],"categories":[],"categories_nodes":[],"categories_segments":[],"categories_sizes":[],"default_left":[0,0,0,0,0,0,0,0,0,0,0,0,0],"id":34,"left_children":[1,3,5,7,9,11,-1,-1,-1,-1,-1,-1,-1],"loss_changes":[1.3123679E1,1.1985983E1,5.349785E0,1.4459268E1,1.1676997E1,3.5657578E0,0E0,0E0,0E0,0E0,0E0,0E0,0E0],"parents":[2147483647,0,0,1,1,2,2,3,3,4,4,5,5],"right_children":[2,4,6,8,10,12,-1,-1,-1,-1,-1,-1,-1],"split_conditions":[9E0,2.4199825E-2,8.772933E-2,2.270993E-3,4.43908E-2,-2.3679417E-2,-6.869244E-2,6.959843E-3,-4.7952015E-2,1.0994334E-3,6.7679875E-2,3.8370122E-3,1.0024654E-1],"split_indices":[388,206,368,102,106,206,0,0,0,0,0,0,0],"split_type":[0,0,0,0,0,0,0,0,0,0,0,0,0],"sum_hessian":[3.6828836E2,3.4285114E2,2.5437233E1,1.9074544E2,1.521057E2,2.355914E1,1.8780932E0,9.149546E1,9.924998E1,1.19286575E2,3.2819122E1,4.865821E0,1.869332E1],"tree_param":{"num_deleted":"0","num_feature":"392","num_nodes":"13","size_leaf_vector":"1"}},{"base_weights":[1.8164122E-3,-2.7886432E-1,1.2276764E-1,5.2530104E-1,-4.030396E-1,2.0137535E-1,-5.5811244E-1,-8.612345E-2,8.034351E-2,8.9735314E-2,-4.7871772E-2,2.5490755E-2,-6.869423E-2,7.272806E-2,-8.560307E-2],"categories":[],"categories_nodes":[],"categories_segments":[],"categories_sizes":[],"default_left":[0,0,0,0,0,0,0,0,0,0,0,0,0,0,0],"id":35,"left_children":[1,3,5,7,9,11,13,-1,-1,-1,-1,-1,-1,-1,-1],"loss_changes":[1.2495317E1,1.1280369E1,1.3878998E1,6.577147E0,9.9345045E0,1.1175448E1,1.0918673E1,0E0,0E0,0E0,0E0,0E0,0E0,0E0,0E0],"parents":[2147483647,0,0,1,1,2,2,3,3,4,4,5,5,6,6],"right_children":[2,4,6,8,10,12,14,-1,-1,-1,-1,-1,-1,-1,-1],"split_conditions":[2E0,1.5491453E-2,4.797655E-2,-4.1942317E-2,-9.291202E-2,1.138173E-1,-4.1847676E-2,-8.612345E-2,8.034351E-2,8.9735314E-2,-4.7871772E-2,2.5490755E-2,-6.869423E-2,7.272806E-2,-8.560307E-2],"split_indices":[388,99,17,306,216,64,236,0,0,0,0,0,0,0,0],"split_type":[0,0,0,0,0,0,0,0,0,0,0,0,0,0,0],"sum_hessian":[3.6605646E2,1.09844505E2,2.5621194E2,1.4260763E1,9.558374E1,2.3032512E2,2.5886827E1,2.0324173E0,1.2228346E1,4.659587E0,9.092416E1,2.1790657E2,1.2418544E1,4.599725E0,2.1287102E1],"tree_param":{"num_deleted":"0","num_feature":"392","num_nodes":"15","size_leaf_vector":"1"}},{"base_weights":[1.6144614E-3,-5.815703E-2,5.517316E-1,-1.2003828E-1,4.81204E-1,7.79193E-1,-4.879961E-1,-3.580689E-2,5.355485E-3,-3.9976664E-2,7.753844E-2,8.974085E-2,-3.2371398E-2,-1.1926923E-1,6.2488385E-2],"categories":[],"categories_nodes":[],"categories_segments":[],"categories_sizes":[],"default_left":[0,0,0,0,0,0,0,0,0,0,0,0,0,0,0],"id":36,"left_children":[1,3,5,7,9,11,13,-1,-1,-1,-1,-1,-1,-1,-1],"loss_changes":[1.2005579E1,1.1050588E1,8.842796E0,1.2260856E1,9.146988E0,4.1686573E0,6.264739E0,0E0,0E0,0E0,0E0,0E0,0E0,0E0,0E0],"parents":[2147483647,0,0,1,1,2,2,3,3,4,4,5,5,6,6],"right_children":[2,4,6,8,10,12,14,-1,-1,-1,-1,-1,-1,-1,-1],"split_conditions":[1.0295205E-33,4.266396E-2,5.4702926E-2,-5.196091E-3,-3.0547872E-2,9.845281E-2,9.478465E-3,-3.580689E-2,5.355485E-3,-3.9976664E-2,7.753844E-2,8.974085E-2,-3.2371398E-2,-1.1926923E-1,6.2488385E-2],"split_indices":[127,18,220,167,217,227,237,0,0,0,0,0,0,0,0],"split_type":[0,0,0,0,0,0,0,0,0,0,0,0,0,0,0],"sum_hessian":[3.6314264E2,3.2835986E2,3.4782776E1,2.9526175E2,3.309813E1,2.874484E1,6.037935E0,1.2407188E2,1.7118987E2,8.195742E0,2.490239E1,2.6130371E1,2.6144695E0,3.6530433E0,2.3848913E0],"tree_param":{"num_deleted":"0","num_feature":"392","num_nodes":"15","size_leaf_vector":"1"}},{"base_weights":[1.7637343E-3,3.8279027E-2,-8.950192E-1,4.4697693E-1,-4.27156E-2,-1.062153E-1,6.97116E-2,7.9505384E-2,8.269589E-3,-6.1295178E-2,3.9564627E-3,-6.141984E-2,7.188523E-2],"categories":[],"categories_nodes":[],"categories_segments":[],"categories_sizes":[],"default_left":[0,0,0,0,0,0,0,0,0,0,0,0,0],"id":37,"left_children":[1,3,5,7,9,-1,11,-1,-1,-1,-1,-1,-1],"loss_changes":[1.1905307E1,1.15814495E1,2.3675804E0,7.270728E0,1.3744901E1,0E0,1.7906159E0,0E0,0E0,0E0,0E0,0E0,0E0],"parents":[2147483647,0,0,1,1,2,2,3,3,4,4,6,6],"right_children":[2,4,6,8,10,-1,12,-1,-1,-1,-1,-1,-1],"split_conditions":[9.209243E-1,-4.2147547E-2,7.546809E-2,-3.0443812E-2,-8.156439E-2,-1.062153E-1,-3.953207E-2,7.9505384E-2,8.269589E-3,-6.1295178E-2,3.9564627E-3,-6.141984E-2,7.188523E-2],"split_indices":[384,187,334,305,218,0,125,0,0,0,0,0,0],"split_type":[0,0,0,0,0,0,0,0,0,0,0,0,0],"sum_hessian":[3.6151575E2,3.482913E2,1.32244425E1,5.685964E1,2.9143167E2,1.1185617E1,2.0388248E0,2.8471804E1,2.8387835E1,3.593533E1,2.5549632E2,1.0190358E0,1.019789E0],"tree_param":{"num_deleted":"0","num_feature":"392","num_nodes":"13","size_leaf_vector":"1"}},{"base_weights":[1.3524106E-3,3.236416E-2,-9.912799E-1,-4.1464764E-1,1.05859675E-1,-1.2432567E0,5.2759495E-2,-9.2878304E-2,-8.1923E-3,4.266446E-3,6.579983E-2,-1.4058006E-1,2.2507586E-5],"categories":[],"categories_nodes":[],"categories_segments":[],"categories_sizes":[],"default_left":[0,0,0,0,0,0,0,0,0,0,0,0,0],"id":38,"left_children":[1,3,5,7,9,11,-1,-1,-1,-1,-1,-1,-1],"loss_changes":[1.1134236E1,1.1565494E1,4.8497324E0,8.429601E0,1.0508626E1,1.9601908E0,0E0,0E0,0E0,0E0,0E0,0E0,0E0],"parents":[2147483647,0,0,1,1,2,2,3,3,4,4,5,5],"right_children":[2,4,6,8,10,12,-1,-1,-1,-1,-1,-1,-1],"split_conditions":[1.0625296E-1,-5.796631E-2,8.953333E-2,-4.663548E-2,4.266396E-2,6.6855595E-2,5.2759495E-2,-9.2878304E-2,-8.1923E-3,4.266446E-3,6.579983E-2,-1.4058006E-1,2.2507586E-5],"split_indices":[287,364,121,218,18,11,0,0,0,0,0,0,0],"split_type":[0,0,0,0,0,0,0,0,0,0,0,0,0],"sum_hessian":[3.5965555E2,3.4969772E2,9.957837E0,4.8721817E1,3.009759E2,8.696565E0,1.2612724E0,1.8438572E1,3.0283245E1,2.710321E2,2.9943798E1,7.5757513E0,1.1208129E0],"tree_param":{"num_deleted":"0","num_feature":"392","num_nodes":"13","size_leaf_vector":"1"}},{"base_weights":[8.520615E-4,-2.3231566E-1,1.2930283E-1,6.0985035E-1,-3.3035597E-1,5.298015E-1,-2.5149785E-2,1.2016248E-1,-3.3284556E-2,5.4961313E-2,-4.367974E-2,-1.40581075E-2,7.71753E-2,-2.611914E-2,3.7336845E-2],"categories":[],"categories_nodes":[],"categories_segments":[],"categories_sizes":[],"default_left":[0,0,0,0,0,0,0,0,0,0,0,0,0,0,0],"id":39,"left_children":[1,3,5,7,9,11,13,-1,-1,-1,-1,-1,-1,-1,-1],"loss_changes":[1.0803944E1,1.0781088E1,1.440076E1,8.049758E0,1.1051119E1,1.06155815E1,1.5976885E1,0E0,0E0,0E0,0E0,0E0,0E0,0E0,0E0],"parents":[2147483647,0,0,1,1,2,2,3,3,4,4,5,5,6,6],"right_children":[2,4,6,8,10,12,14,-1,-1,-1,-1,-1,-1,-1,-1],"split_conditions":[2.625E-1,-6.611728E-2,-1.1287795E-2,9.105858E-3,-5.478169E-2,-2.7092414E-2,9.250556E-3,1.2016248E-1,-3.3284556E-2,5.4961313E-2,-4.367974E-2,-1.40581075E-2,7.71753E-2,-2.611914E-2,3.7336845E-2],"split_indices":[391,60,238,168,187,104,221,0,0,0,0,0,0,0,0],"split_type":[0,0,0,0,0,0,0,0,0,0,0,0,0,0,0],"sum_hessian":[3.5872284E2,1.2713498E2,2.3158786E2,1.2712682E1,1.144223E2,6.3778572E1,1.678093E2,7.6412454E0,5.0714364E0,1.1897787E1,1.0252451E2,1.7025219E1,4.6753353E1,1.05604515E2,6.2204773E1],"tree_param":{"num_deleted":"0","num_feature":"392","num_nodes":"15","size_leaf_vector":"1"}},{"base_weights":[1.4426616E-3,5.9690095E-2,-4.9009153E-1,-2.0899422E-1,1.9139086E-1,-8.5602164E-1,3.690991E-1,-3.1561167E-3,-7.9763815E-2,2.114337E-3,4.372893E-2,5.11607E-3,-1.2285165E-1,1.1218146E-1,-3.177871E-2],"categories":[],"categories_nodes":[],"categories_segments":[],"categories_sizes":[],"default_left":[0,0,0,0,0,0,0,0,0,0,0,0,0,0,0],"id":40,"left_children":[1,3,5,7,9,11,13,-1,-1,-1,-1,-1,-1,-1,-1],"loss_changes":[1.025395E1,1.1369865E1,1.2245904E1,1.1024728E1,9.00748E0,9.15707E0,6.5775995E0,0E0,0E0,0E0,0E0,0E0,0E0,0E0,0E0],"parents":[2147483647,0,0,1,1,2,2,3,3,4,4,5,5,6,6],"right_children":[2,4,6,8,10,12,14,-1,-1,-1,-1,-1,-1,-1,-1],"split_conditions":[8.6745545E-2,-1.706808E-2,3.1890083E-2,4.7886964E-2,4.0134015E-3,-3.5511266E-2,-1.4040603E-2,-3.1561167E-3,-7.9763815E-2,2.114337E-3,4.372893E-2,5.11607E-3,-1.2285165E-1,1.1218146E-1,-3.177871E-2],"split_indices":[238,5,181,287,255,134,253,0,0,0,0,0,0,0,0],"split_type":[0,0,0,0,0,0,0,0,0,0,0,0,0,0,0],"sum_hessian":[3.5612466E2,3.1918E2,3.6944675E1,1.0479649E2,2.143835E2,2.5912292E1,1.1032382E1,8.133389E1,2.34626E1,1.27319786E2,8.7063705E1,7.7937846E0,1.811851E1,4.9618325E0,6.070549E0],"tree_param":{"num_deleted":"0","num_feature":"392","num_nodes":"15","size_leaf_vector":"1"}},{"base_weights":[1.0564923E-3,-3.303663E-2,8.25393E-1,-2.535658E-1,9.414541E-2,9.611768E-2,-4.800097E-2,6.695135E-2,-3.702012E-2,-5.7932194E-3,4.5163985E-2],"categories":[],"categories_nodes":[],"categories_segments":[],"categories_sizes":[],"default_left":[0,0,0,0,0,0,0,0,0,0,0],"id":41,"left_children":[1,3,5,7,9,-1,-1,-1,-1,-1,-1],"loss_changes":[1.0017299E1,9.6247015E0,2.9705582E0,1.3757115E1,1.1868985E1,0E0,0E0,0E0,0E0,0E0,0E0],"parents":[2147483647,0,0,1,1,2,2,3,3,4,4],"right_children":[2,4,6,8,10,-1,-1,-1,-1,-1,-1],"split_conditions":[1.2E1,-2.7310003E-3,7.806344E-2,-6.651094E-2,1.84555E-2,9.611768E-2,-4.800097E-2,6.695135E-2,-3.702012E-2,-5.7932194E-3,4.5163985E-2],"split_indices":[388,206,71,302,268,0,0,0,0,0,0],"split_type":[0,0,0,0,0,0,0,0,0,0,0],"sum_hessian":[3.5446387E2,3.413079E2,1.3155977E1,1.2447644E2,2.1683145E2,1.21553135E1,1.0006635E0,1.3432035E1,1.1104441E2,1.5270775E2,6.41237E1],"tree_param":{"num_deleted":"0","num_feature":"392","num_nodes":"11","size_leaf_vector":"1"}},{"base_weights":[1.4781415E-3,3.37843E-2,-8.5543215E-1,1.984705E-1,-1.5731843E-1,8.473833E-2,-1.0392827E-1,5.035398E-2,-6.922897E-4,-1.4439784E-1,-9.109613E-3,7.111672E-2,-5.738392E-2],"categories":[],"categories_nodes":[],"categories_segments":[],"categories_sizes":[],"default_left":[0,0,0,0,0,0,0,0,0,0,0,0,0],"id":42,"left_children":[1,3,5,7,9,11,-1,-1,-1,-1,-1,-1,-1],"loss_changes":[9.826238E0,1.0794952E1,2.31711E0,1.1541794E1,1.3404736E1,1.6597399E0,0E0,0E0,0E0,0E0,0E0,0E0,0E0],"parents":[2147483647,0,0,1,1,2,2,3,3,4,4,5,5],"right_children":[2,4,6,8,10,12,-1,-1,-1,-1,-1,-1,-1],"split_conditions":[9.209243E-1,1.459329E-2,-1.6635546E-2,-8.208041E-3,-9.351399E-2,-4.9848102E-2,-1.0392827E-1,5.035398E-2,-6.922897E-4,-1.4439784E-1,-9.109613E-3,7.111672E-2,-5.738392E-2],"split_indices":[384,214,273,102,230,369,0,0,0,0,0,0,0],"split_type":[0,0,0,0,0,0,0,0,0,0,0,0,0],"sum_hessian":[3.529056E2,3.4100986E2,1.1895753E1,1.8314383E2,1.5786603E2,2.0339065E0,9.861846E0,7.310699E1,1.1003684E2,6.7090077E0,1.5115703E2,1.00147E0,1.0324364E0],"tree_param":{"num_deleted":"0","num_feature":"392","num_nodes":"13","size_leaf_vector":"1"}},{"base_weights":[7.4721227E-4,4.3845183E-1,-5.940879E-2,-8.5996246E-1,5.7907397E-1,1.8243757E-1,-2.168213E-1,3.325775E-2,-1.5461263E-1,7.85187E-2,-3.131285E-2,6.2168147E-2,-5.643638E-3,2.7328316E-2,-3.496614E-2],"categories":[],"categories_nodes":[],"categories_segments":[],"categories_sizes":[],"default_left":[0,0,0,0,0,0,0,0,0,0,0,0,0,0,0],"id":43,"left_children":[1,3,5,7,9,11,13,-1,-1,-1,-1,-1,-1,-1,-1],"loss_changes":[9.310677E0,8.299106E0,1.187511E1,4.2599173E0,7.445017E0,1.2952893E1,1.2385932E1,0E0,0E0,0E0,0E0,0E0,0E0,0E0,0E0],"parents":[2147483647,0,0,1,1,2,2,3,3,4,4,5,5,6,6],"right_children":[2,4,6,8,10,12,14,-1,-1,-1,-1,-1,-1,-1,-1],"split_conditions":[-2.676262E-3,-6.704827E-2,-1.4225772E-2,6.593332E-3,4.905705E-2,-1.2525206E-2,-4.12703E-2,3.325775E-2,-1.5461263E-1,7.85187E-2,-3.131285E-2,6.2168147E-2,-5.643638E-3,2.7328316E-2,-3.496614E-2],"split_indices":[99,16,285,113,260,187,376,0,0,0,0,0,0,0,0],"split_type":[0,0,0,0,0,0,0,0,0,0,0,0,0,0,0],"sum_hessian":[3.5161798E2,4.1725807E1,3.0989215E2,3.5775547E0,3.814825E1,1.2211595E2,1.8777621E2,1.494847E0,2.0827076E0,3.1086676E1,7.061575E0,4.245208E1,7.966387E1,3.981698E1,1.4795923E2],"tree_param":{"num_deleted":"0","num_feature":"392","num_nodes":"15","size_leaf_vector":"1"}},{"base_weights":[8.33939E-4,7.942037E-2,-3.2617033E-1,1.728746E-1,-3.1651986E-1,-6.2784624E-1,1.7201997E-1,3.9135396E-2,-4.8997584E-3,3.745733E-2,-5.4684278E-2,-8.6324E-2,1.5956623E-2,-4.466785E-2,7.0056215E-2],"categories":[],"categories_nodes":[],"categories_segments":[],"categories_sizes":[],"default_left":[0,0,0,0,0,0,0,0,0,0,0,0,0,0,0],"id":44,"left_children":[1,3,5,7,9,11,13,-1,-1,-1,-1,-1,-1,-1,-1],"loss_changes":[9.046639E0,1.0556603E1,1.0359444E1,1.1181228E1,8.88791E0,8.052126E0,8.982223E0,0E0,0E0,0E0,0E0,0E0,0E0,0E0,0E0],"parents":[2147483647,0,0,1,1,2,2,3,3,4,4,5,5,6,6],"right_children":[2,4,6,8,10,12,14,-1,-1,-1,-1,-1,-1,-1,-1],"split_conditions":[5.352424E-2,4.461096E-2,4.0134015E-3,-2.8468147E-3,-5.892946E-2,3.434881E-2,-7.5668655E-3,3.9135396E-2,-4.8997584E-3,3.745733E-2,-5.4684278E-2,-8.6324E-2,1.5956623E-2,-4.466785E-2,7.0056215E-2],"split_indices":[250,54,255,141,152,204,5,0,0,0,0,0,0,0,0],"split_type":[0,0,0,0,0,0,0,0,0,0,0,0,0,0,0],"sum_hessian":[3.5002734E2,2.8281717E2,6.721016E1,2.2926651E2,5.3550663E1,4.1699215E1,2.5510942E1,1.151316E2,1.1413491E2,1.3229303E1,4.0321358E1,3.2028214E1,9.671003E0,1.1824435E1,1.3686508E1],"tree_param":{"num_deleted":"0","num_feature":"392","num_nodes":"15","size_leaf_vector":"1"}},{"base_weights":[7.126421E-4,1.1898515E-1,-2.1140663E-1,3.283906E-1,-9.925341E-2,-5.409481E-1,-1.3718716E-2,1.918812E-2,9.68611E-2,-2.8285151E-2,5.938815E-2,2.7900761E-2,-7.4991696E-2,4.6613693E-2,-2.363776E-2],"categories":[],"categories_nodes":[],"categories_segments":[],"categories_sizes":[],"default_left":[0,0,0,0,0,0,0,0,0,0,0,0,0,0,0],"id":45,"left_children":[1,3,5,7,9,11,13,-1,-1,-1,-1,-1,-1,-1,-1],"loss_changes":[8.804913E0,1.0329907E1,8.177415E0,9.883956E0,1.4306641E1,8.276609E0,8.610175E0,0E0,0E0,0E0,0E0,0E0,0E0,0E0,0E0],"parents":[2147483647,0,0,1,1,2,2,3,3,4,4,5,5,6,6],"right_children":[2,4,6,8,10,12,14,-1,-1,-1,-1,-1,-1,-1,-1],"split_conditions":[-2.0789308E-8,1.459329E-2,-8.230911E-3,2.008536E-2,4.3985393E-2,-2.4571367E-2,-3.5167704E-3,1.918812E-2,9.68611E-2,-2.8285151E-2,5.938815E-2,2.7900761E-2,-7.4991696E-2,4.6613693E-2,-2.363776E-2],"split_indices":[319,214,217,144,277,33,347,0,0,0,0,0,0,0,0],"split_type":[0,0,0,0,0,0,0,0,0,0,0,0,0,0,0],"sum_hessian":[3.4896017E2,2.243225E2,1.2463766E2,1.142204E2,1.10102104E2,4.60826E1,7.855506E1,9.5217575E1,1.900282E1,8.7513405E1,2.2588696E1,9.29105E0,3.679155E1,2.45511E1,5.4003963E1],"tree_param":{"num_deleted":"0","num_feature":"392","num_nodes":"15","size_leaf_vector":"1"}},{"base_weights":[1.0678857E-3,1.8904693E-1,-1.29149E-1,6.4546846E-2,9.0526414E-1,-3.058924E-1,2.5070813E-1,-1.5849214E-2,5.424443E-2,-5.774581E-2,1.063892E-1,-8.292878E-2,-1.6459538E-2,-1.9162731E-1,3.213895E-2],"categories":[],"categories_nodes":[],"categories_segments":[],"categories_sizes":[],"default_left":[0,0,0,0,0,0,0,0,0,0,0,0,0,0,0],"id":46,"left_children":[1,3,5,7,9,11,13,-1,-1,-1,-1,-1,-1,-1,-1],"loss_changes":[8.532106E0,1.2660761E1,1.3901782E1,1.3153301E1,5.5645523E0,1.0289892E1,1.0715351E1,0E0,0E0,0E0,0E0,0E0,0E0,0E0,0E0],"parents":[2147483647,0,0,1,1,2,2,3,3,4,4,5,5,6,6],"right_children":[2,4,6,8,10,12,14,-1,-1,-1,-1,-1,-1,-1,-1],"split_conditions":[9.37025E-3,3.4084262E-34,2.929344E-2,2.9324332E-2,-7.525251E-2,-5.3553775E-2,-8.42253E-2,-1.5849214E-2,5.424443E-2,-5.774581E-2,1.063892E-1,-8.292878E-2,-1.6459538E-2,-1.9162731E-1,3.213895E-2],"split_indices":[6,127,104,280,94,375,301,0,0,0,0,0,0,0,0],"split_type":[0,0,0,0,0,0,0,0,0,0,0,0,0,0,0],"sum_hessian":[3.4656412E2,1.4164125E2,2.0492287E2,1.2159458E2,2.0046675E1,1.3998438E2,6.493849E1,8.3358696E1,3.8235886E1,1.6822318E0,1.8364443E1,2.8722136E1,1.1126224E2,1.2264359E0,6.371205E1],"tree_param":{"num_deleted":"0","num_feature":"392","num_nodes":"15","size_leaf_vector":"1"}},{"base_weights":[7.561138E-4,-7.430173E-2,3.2307577E-1,-2.323357E-1,1.6696037E-1,5.7897645E-1,-2.4594846E-1,6.422794E-2,-3.0794162E-2,-6.814248E-2,3.1424586E-2,8.259591E-2,-7.302025E-3,-5.8972824E-2,7.259191E-2],"categories":[],"categories_nodes":[],"categories_segments":[],"categories_sizes":[],"default_left":[0,0,0,0,0,0,0,0,0,0,0,0,0,0,0],"id":47,"left_children":[1,3,5,7,9,11,13,-1,-1,-1,-1,-1,-1,-1,-1],"loss_changes":[8.396842E0,1.0772969E1,9.688478E0,1.1473969E1,1.4209997E1,7.3903303E0,7.4572434E0,0E0,0E0,0E0,0E0,0E0,0E0,0E0,0E0],"parents":[2147483647,0,0,1,1,2,2,3,3,4,4,5,5,6,6],"right_children":[2,4,6,8,10,12,14,-1,-1,-1,-1,-1,-1,-1,-1],"split_conditions":[3.8230255E-2,1.108652E-2,1.6496584E-2,-7.539242E-2,-5.7943203E-2,1.3960548E-2,4E0,6.422794E-2,-3.0794162E-2,-6.814248E-2,3.1424586E-2,8.259591E-2,-7.302025E-3,-5.8972824E-2,7.259191E-2],"split_indices":[367,82,56,164,88,170,389,0,0,0,0,0,0,0,0],"split_type":[0,0,0,0,0,0,0,0,0,0,0,0,0,0,0],"sum_hessian":[3.4509055E2,2.8053296E2,6.455759E1,1.6952557E2,1.11007385E2,4.451906E1,2.003853E1,1.2892222E1,1.5663335E2,1.5884405E1,9.512298E1,3.209453E1,1.242453E1,1.5092902E1,4.9456277E0],"tree_param":{"num_deleted":"0","num_feature":"392","num_nodes":"15","size_leaf_vector":"1"}},{"base_weights":[1.0586777E-3,2.987625E-2,-8.241984E-1,8.65395E-2,-4.16005E-1,8.781847E-3,-1.0143794E-1,1.644115E-2,-3.539925E-2,-2.4324053E-3,-1.0264178E-1],"categories":[],"categories_nodes":[],"categories_segments":[],"categories_sizes":[],"default_left":[0,0,0,0,0,0,0,0,0,0,0],"id":48,"left_children":[1,3,5,7,9,-1,-1,-1,-1,-1,-1],"loss_changes":[8.229235E0,8.482579E0,2.1141796E0,1.0262281E1,9.028662E0,0E0,0E0,0E0,0E0,0E0,0E0],"parents":[2147483647,0,0,1,1,2,2,3,3,4,4],"right_children":[2,4,6,8,10,-1,-1,-1,-1,-1,-1],"split_conditions":[9.209243E-1,4.797655E-2,-5.9167124E-2,5.0213963E-2,2.9822208E-2,8.781847E-3,-1.0143794E-1,1.644115E-2,-3.539925E-2,-2.4324053E-3,-1.0264178E-1],"split_indices":[384,17,292,32,148,0,0,0,0,0,0],"split_type":[0,0,0,0,0,0,0,0,0,0,0],"sum_hessian":[3.439938E2,3.3331827E2,1.0675513E1,2.9645078E2,3.6867493E1,1.9349E0,8.740613E0,2.524521E2,4.3998688E1,2.309078E1,1.3776711E1],"tree_param":{"num_deleted":"0","num_feature":"392","num_nodes":"11","size_leaf_vector":"1"}},{"base_weights":[2.6150752E-4,-2.878187E-2,7.8787345E-1,-4.1484073E-1,3.478653E-2,9.425247E-2,-4.7056645E-2,-5.9957333E-2,3.6586344E-2,-2.6023944E-3,5.7040542E-2],"categories":[],"categories_nodes":[],"categories_segments":[],"categories_sizes":[],"default_left":[0,0,0,0,0,0,0,0,0,0,0],"id":49,"left_children":[1,3,5,7,9,-1,-1,-1,-1,-1,-1],"loss_changes":[7.8893065E0,8.177606E0,2.8306355E0,7.0129147E0,9.347391E0,0E0,0E0,0E0,0E0,0E0,0E0],"parents":[2147483647,0,0,1,1,2,2,3,3,4,4],"right_children":[2,4,6,8,10,-1,-1,-1,-1,-1,-1],"split_conditions":[1.2E1,-5.796631E-2,7.806344E-2,6.2239744E-2,4.266396E-2,9.425247E-2,-4.7056645E-2,-5.9957333E-2,3.6586344E-2,-2.6023944E-3,5.7040542E-2],"split_indices":[388,364,71,186,18,0,0,0,0,0,0],"split_type":[0,0,0,0,0,0,0,0,0,0,0],"sum_hessian":[3.4289777E2,3.316322E2,1.126556E1,4.610498E1,2.8552722E2,1.02562E1,1.0093601E0,3.7470585E1,8.634395E0,2.5726996E2,2.8257244E1],"tree_param":{"num_deleted":"0","num_feature":"392","num_nodes":"11","size_leaf_vector":"1"}},{"base_weights":[6.04953E-4,-2.1640441E-1,1.0499849E-1,-5.461746E-1,9.4345234E-2,9.5235914E-1,5.516395E-2,5.229343E-2,-7.4369095E-2,-4.850718E-2,3.471033E-2,-3.3508305E-2,1.2561937E-1,7.877562E-2,-3.2413378E-4],"categories":[],"categories_nodes":[],"categories_segments":[],"categories_sizes":[],"default_left":[0,0,0,0,0,0,0,0,0,0,0,0,0,0,0],"id":50,"left_children":[1,3,5,7,9,11,13,-1,-1,-1,-1,-1,-1,-1,-1],"loss_changes":[7.7872925E0,1.1493052E1,9.748107E0,1.1858393E1,8.71179E0,5.4395895E0,9.426866E0,0E0,0E0,0E0,0E0,0E0,0E0,0E0,0E0],"parents":[2147483647,0,0,1,1,2,2,3,3,4,4,5,5,6,6],"right_children":[2,4,6,8,10,12,14,-1,-1,-1,-1,-1,-1,-1,-1],"split_conditions":[-4.7207675E-3,-1.9849468E-2,-7.083031E-2,1.1684997E-2,1.7241683E-2,-3.073176E-2,-5.0352886E-2,5.229343E-2,-7.4369095E-2,-4.850718E-2,3.471033E-2,-3.3508305E-2,1.2561937E-1,7.877562E-2,-3.2413378E-4],"split_indices":[11,51,376,99,240,178,238,0,0,0,0,0,0,0,0],"split_type":[0,0,0,0,0,0,0,0,0,0,0,0,0,0,0],"sum_hessian":[3.4174045E2,1.1065079E2,2.3108966E2,5.3314926E1,5.7335857E1,1.1829893E1,2.1925977E2,8.056962E0,4.5257965E1,1.713556E1,4.02003E1,2.239134E0,9.590759E0,1.52675295E1,2.0399223E2],"tree_param":{"num_deleted":"0","num_feature":"392","num_nodes":"15","size_leaf_vector":"1"}},{"base_weights":[1.0564515E-3,2.7068907E-2,-8.6154544E-1,3.9902017E-1,-4.320792E-2,-1.1262009E0,5.9482194E-2,7.151386E-2,2.1487488E-3,1.2721037E-2,-2.4488864E-2,-1.2800634E-1,1.8909996E-3],"categories":[],"categories_nodes":[],"categories_segments":[],"categories_sizes":[],"default_left":[0,0,0,0,0,0,0,0,0,0,0,0,0],"id":51,"left_children":[1,3,5,7,9,11,-1,-1,-1,-1,-1,-1,-1],"loss_changes":[7.682133E0,8.703522E0,4.5327706E0,6.2986937E0,9.66846E0,1.5793543E0,0E0,0E0,0E0,0E0,0E0,0E0,0E0],"parents":[2147483647,0,0,1,1,2,2,3,3,4,4,5,5],"right_children":[2,4,6,8,10,12,-1,-1,-1,-1,-1,-1,-1],"split_conditions":[1.0625296E-1,-4.2147547E-2,8.953333E-2,-9.538908E-3,-1.2474111E-3,6.6855595E-2,5.9482194E-2,7.151386E-2,2.1487488E-3,1.2721037E-2,-2.4488864E-2,-1.2800634E-1,1.8909996E-3],"split_indices":[287,187,121,312,376,11,0,0,0,0,0,0,0],"split_type":[0,0,0,0,0,0,0,0,0,0,0,0,0],"sum_hessian":[3.403262E2,3.3130408E2,9.022121E0,5.1905922E1,2.7939816E2,7.826561E0,1.1955606E0,2.7764065E1,2.4141857E1,1.5163623E2,1.27761925E2,6.795619E0,1.0309423E0],"tree_param":{"num_deleted":"0","num_feature":"392","num_nodes":"13","size_leaf_vector":"1"}},{"base_weights":[9.658989E-4,-1.7976548E-1,1.2150551E-1,2.8216634E-2,-6.259847E-1,-1.3378194E-1,2.9443654E-1,1.5450058E-2,-8.3448224E-2,3.5423428E-2,-8.357457E-2,-7.558363E-2,6.8577975E-3,9.639361E-3,7.180288E-2],"categories":[],"categories_nodes":[],"categories_segments":[],"categories_sizes":[],"default_left":[0,0,0,0,0,0,0,0,0,0,0,0,0,0,0],"id":52,"left_children":[1,3,5,7,9,11,13,-1,-1,-1,-1,-1,-1,-1,-1],"loss_changes":[7.439543E0,1.2698167E1,9.0832E0,1.03864565E1,9.23642E0,1.055219E1,1.0202195E1,0E0,0E0,0E0,0E0,0E0,0E0,0E0,0E0],"parents":[2147483647,0,0,1,1,2,2,3,3,4,4,5,5,6,6],"right_children":[2,4,6,8,10,12,14,-1,-1,-1,-1,-1,-1,-1,-1],"split_conditions":[-1.5956452E-2,2.6888758E-2,4.1E0,4.992888E-2,-5.443407E-2,-3.4538284E-2,2.8762208E-2,1.5450058E-2,-8.3448224E-2,3.5423428E-2,-8.357457E-2,-7.558363E-2,6.8577975E-3,9.639361E-3,7.180288E-2],"split_indices":[303,60,385,45,164,131,327,0,0,0,0,0,0,0,0],"split_type":[0,0,0,0,0,0,0,0,0,0,0,0,0,0,0],"sum_hessian":[3.3949124E2,1.3563509E2,2.0385616E2,9.315326E1,4.2481827E1,8.241636E1,1.21439804E2,8.197454E1,1.11787195E1,7.366977E0,3.511485E1,1.9558483E1,6.2857876E1,8.358752E1,3.7852287E1],"tree_param":{"num_deleted":"0","num_feature":"392","num_nodes":"15","size_leaf_vector":"1"}},{"base_weights":[6.917302E-4,1.448847E-1,-1.5044451E-1,9.21244E-1,6.5112226E-2,-1.0568624E-1,-1.6568859E0,1.1431272E-1,-3.429715E-2,2.299364E-2,-3.2103874E-2,-2.4408413E-2,3.0197812E-2,-2.263556E-1,-9.653132E-3],"categories":[],"categories_nodes":[],"categories_segments":[],"categories_sizes":[],"default_left":[0,0,0,0,0,0,0,0,0,0,0,0,0,0,0],"id":53,"left_children":[1,3,5,7,9,11,13,-1,-1,-1,-1,-1,-1,-1,-1],"loss_changes":[7.4100866E0,1.0716637E1,1.10187435E1,4.918769E0,1.0185384E1,9.2304E0,4.251566E0,0E0,0E0,0E0,0E0,0E0,0E0,0E0,0E0],"parents":[2147483647,0,0,1,1,2,2,3,3,4,4,5,5,6,6],"right_children":[2,4,6,8,10,12,14,-1,-1,-1,-1,-1,-1,-1,-1],"split_conditions":[-3.0831841E-3,-4.8865397E-2,1.0244382E-1,3.321752E-2,2.6734153E-2,2.75801E-2,9.685937E-3,1.1431272E-1,-3.429715E-2,2.299364E-2,-3.2103874E-2,-2.4408413E-2,3.0197812E-2,-2.263556E-1,-9.653132E-3],"split_indices":[377,48,148,100,45,257,152,0,0,0,0,0,0,0,0],"split_type":[0,0,0,0,0,0,0,0,0,0,0,0,0,0,0],"sum_hessian":[3.3802463E2,1.73007E2,1.6501762E2,1.5137536E1,1.5786946E2,1.6129549E2,3.7221353E0,1.2958895E1,2.1786416E0,1.10926346E2,4.6943115E1,1.2071518E2,4.0580307E1,2.3556027E0,1.3665326E0],"tree_param":{"num_deleted":"0","num_feature":"392","num_nodes":"15","size_leaf_vector":"1"}},{"base_weights":[3.2509124E-4,-8.9352705E-2,2.3790918E-1,4.4156006E-1,-1.5933307E-1,-2.7171662E-1,4.2241114E-1,-1.02001205E-1,5.7245463E-2,3.9391527E-3,-3.78381E-2,-6.65238E-2,4.453854E-2,-3.2125466E-2,5.956998E-2],"categories":[],"categories_nodes":[],"categories_segments":[],"categories_sizes":[],"default_left":[0,0,0,0,0,0,0,0,0,0,0,0,0,0,0],"id":54,"left_children":[1,3,5,7,9,11,13,-1,-1,-1,-1,-1,-1,-1,-1],"loss_changes":[7.2352085E0,9.229916E0,8.86439E0,6.1274676E0,9.528721E0,7.4478865E0,9.046145E0,0E0,0E0,0E0,0E0,0E0,0E0,0E0,0E0],"parents":[2147483647,0,0,1,1,2,2,3,3,4,4,5,5,6,6],"right_children":[2,4,6,8,10,12,14,-1,-1,-1,-1,-1,-1,-1,-1],"split_conditions":[3.9042927E-2,-6.281035E-2,-4.517864E-2,-9.199835E-2,1.4158007E-2,1.9251004E-2,-2.2975562E-2,-1.02001205E-1,5.7245463E-2,3.9391527E-3,-3.78381E-2,-6.65238E-2,4.453854E-2,-3.2125466E-2,5.956998E-2],"split_indices":[106,39,165,212,214,370,309,0,0,0,0,0,0,0,0],"split_type":[0,0,0,0,0,0,0,0,0,0,0,0,0,0,0],"sum_hessian":[3.3758746E2,2.4553314E2,9.2054306E1,2.797655E1,2.175566E2,2.434276E1,6.771155E1,1.7412366E0,2.6235313E1,1.1450006E2,1.03056526E2,1.5764215E1,8.578545E0,1.2634953E1,5.50766E1],"tree_param":{"num_deleted":"0","num_feature":"392","num_nodes":"15","size_leaf_vector":"1"}},{"base_weights":[1.9849074E-4,-5.902703E-2,3.6405927E-1,1.6990595E-1,-1.9400308E-1,5.091057E-1,-1.4825478E0,5.485186E-2,-1.1004312E-2,1.9401738E-2,-3.2233495E-2,-6.1206635E-2,7.045444E-2,-2.015179E-2,-1.9043985E-1],"categories":[],"categories_nodes":[],"categories_segments":[],"categories_sizes":[],"default_left":[0,0,0,0,0,0,0,0,0,0,0,0,0,0,0],"id":55,"left_children":[1,3,5,7,9,11,13,-1,-1,-1,-1,-1,-1,-1,-1],"loss_changes":[7.304534E0,9.040872E0,1.3463705E1,1.1577191E1,9.217738E0,1.0234208E1,1.6217737E0,0E0,0E0,0E0,0E0,0E0,0E0,0E0,0E0],"parents":[2147483647,0,0,1,1,2,2,3,3,4,4,5,5,6,6],"right_children":[2,4,6,8,10,12,14,-1,-1,-1,-1,-1,-1,-1,-1],"split_conditions":[4.458496E-2,-1.8715873E-2,1.104151E-1,-4.97756E-3,-3.4182325E-2,-3.7269134E-2,2.2240018E-4,5.485186E-2,-1.1004312E-2,1.9401738E-2,-3.2233495E-2,-6.1206635E-2,7.045444E-2,-2.015179E-2,-1.9043985E-1],"split_indices":[258,312,64,43,129,193,148,0,0,0,0,0,0,0,0],"split_type":[0,0,0,0,0,0,0,0,0,0,0,0,0,0,0],"sum_hessian":[3.3696274E2,2.9051367E2,4.644906E1,1.0765729E2,1.8285638E2,4.373786E1,2.7111983E0,4.5356396E1,6.2300888E1,4.5319084E1,1.3753731E2,6.176043E0,3.7561817E1,1.037706E0,1.6734922E0],"tree_param":{"num_deleted":"0","num_feature":"392","num_nodes":"15","size_leaf_vector":"1"}},{"base_weights":[-1.724813E-4,2.600616E-2,-7.9673064E-1,1.3393639E-1,-1.8622093E-1,9.790225E-3,-9.9507734E-2,-3.7727557E-2,2.2674559E-2,3.8111005E-2,-3.5439204E-2],"categories":[],"categories_nodes":[],"categories_segments":[],"categories_sizes":[],"default_left":[0,0,0,0,0,0,0,0,0,0,0],"id":56,"left_children":[1,3,5,7,9,-1,-1,-1,-1,-1,-1],"loss_changes":[7.052797E0,7.525709E0,2.0070639E0,1.0412048E1,1.0707426E1,0E0,0E0,0E0,0E0,0E0,0E0],"parents":[2147483647,0,0,1,1,2,2,3,3,4,4],"right_children":[2,4,6,8,10,-1,-1,-1,-1,-1,-1],"split_conditions":[9.209243E-1,-6.9857547E-3,-1.6635546E-2,-8.156439E-2,-3.0129468E-2,9.790225E-3,-9.9507734E-2,-3.7727557E-2,2.2674559E-2,3.8111005E-2,-3.5439204E-2],"split_indices":[384,266,273,218,33,0,0,0,0,0,0],"split_type":[0,0,0,0,0,0,0,0,0,0,0],"sum_hessian":[3.362244E2,3.2646268E2,9.761744E0,2.1665134E2,1.0981133E2,1.8633957E0,7.898348E0,3.2818E1,1.8383333E2,2.4818634E1,8.49927E1],"tree_param":{"num_deleted":"0","num_feature":"392","num_nodes":"11","size_leaf_vector":"1"}},{"base_weights":[-5.0302665E-4,6.500097E-1,-3.2587834E-2,-8.247154E-2,9.2136896E-1,1.1168083E-1,-2.0939718E-1,-4.056437E-2,1.1997797E-1,-1.8080663E-2,3.1208102E-2,-5.088611E-4,-4.7563717E-2],"categories":[],"categories_nodes":[],"categories_segments":[],"categories_sizes":[],"default_left":[0,0,0,0,0,0,0,0,0,0,0,0,0],"id":57,"left_children":[1,3,5,-1,7,9,11,-1,-1,-1,-1,-1,-1],"loss_changes":[7.0324144E0,7.0977015E0,8.213639E0,0E0,5.6030607E0,1.0458478E1,7.864182E0,0E0,0E0,0E0,0E0,0E0,0E0],"parents":[2147483647,0,0,1,1,2,2,4,4,5,5,6,6],"right_children":[2,4,6,-1,8,10,12,-1,-1,-1,-1,-1,-1],"split_conditions":[-9.291202E-2,-5.439016E-2,-2.180464E-8,-8.247154E-2,-4.6018716E-2,-1.3521775E-2,-8.5109435E-3,-4.056437E-2,1.1997797E-1,-1.8080663E-2,3.1208102E-2,-5.088611E-4,-4.7563717E-2],"split_indices":[216,131,319,0,342,221,311,0,0,0,0,0,0],"split_type":[0,0,0,0,0,0,0,0,0,0,0,0,0],"sum_hessian":[3.3492252E2,1.48374405E1,3.2008508E2,1.988977E0,1.2848463E1,1.764654E2,1.4361967E2,2.1489143E0,1.0699549E1,7.178774E1,1.0467766E2,8.183773E1,6.1781937E1],"tree_param":{"num_deleted":"0","num_feature":"392","num_nodes":"13","size_leaf_vector":"1"}},{"base_weights":[-4.8633633E-4,-4.286314E-2,4.938853E-1,-2.0325989E-1,1.0506632E-1,1.8091448E-1,1.2994722E0,-3.958298E-2,1.4224877E-2,2.5055815E-2,-2.5973558E-2,-3.9280776E-2,7.1947865E-2,1.5864967E-1,-8.7370565E-3],"categories":[],"categories_nodes":[],"categories_segments":[],"categories_sizes":[],"default_left":[0,0,0,0,0,0,0,0,0,0,0,0,0,0,0],"id":58,"left_children":[1,3,5,7,9,11,13,-1,-1,-1,-1,-1,-1,-1,-1],"loss_changes":[7.0077043E0,7.331265E0,6.4232907E0,9.913504E0,8.606404E0,6.518444E0,3.015564E0,0E0,0E0,0E0,0E0,0E0,0E0,0E0,0E0],"parents":[2147483647,0,0,1,1,2,2,3,3,4,4,5,5,6,6],"right_children":[2,4,6,8,10,12,14,-1,-1,-1,-1,-1,-1,-1,-1],"split_conditions":[5.5842653E-2,-5.710077E-3,2.978421E-2,1.0702739E-2,3.3191625E-2,1.2083581E-2,6.863114E-2,-3.958298E-2,1.4224877E-2,2.5055815E-2,-2.5973558E-2,-3.9280776E-2,7.1947865E-2,1.5864967E-1,-8.7370565E-3],"split_indices":[295,34,119,255,54,115,373,0,0,0,0,0,0,0,0],"split_type":[0,0,0,0,0,0,0,0,0,0,0,0,0,0,0],"sum_hessian":[3.3248782E2,3.0707877E2,2.540904E1,1.4715152E2,1.5992726E2,1.9181568E1,6.2274723E0,9.4394775E1,5.2756744E1,1.14553665E2,4.5373596E1,9.4186735E0,9.762896E0,5.040347E0,1.1871254E0],"tree_param":{"num_deleted":"0","num_feature":"392","num_nodes":"15","size_leaf_vector":"1"}},{"base_weights":[9.962966E-5,-1.8524852E-1,1.0705635E-1,6.078678E-1,-2.8517413E-1,3.831473E-1,-5.3589366E-2,5.6721484E-3,1.2575439E-1,-7.353627E-2,-1.1218381E-2,5.406508E-2,-3.8661744E-2,6.570383E-2,-1.5069716E-2],"categories":[],"categories_nodes":[],"categories_segments":[],"categories_sizes":[],"default_left":[0,0,0,0,0,0,0,0,0,0,0,0,0,0,0],"id":59,"left_children":[1,3,5,7,9,11,13,-1,-1,-1,-1,-1,-1,-1,-1],"loss_changes":[6.618234E0,9.854615E0,9.409507E0,4.9372735E0,8.419408E0,9.664391E0,9.394311E0,0E0,0E0,0E0,0E0,0E0,0E0,0E0,0E0],"parents":[2147483647,0,0,1,1,2,2,3,3,4,4,5,5,6,6],"right_children":[2,4,6,8,10,12,14,-1,-1,-1,-1,-1,-1,-1,-1],"split_conditions":[-2.7310003E-3,-6.651094E-2,8.464784E-4,1.5673354E-2,-4.046332E-2,3.231256E-2,-5.8885187E-2,5.6721484E-3,1.2575439E-1,-7.353627E-2,-1.1218381E-2,5.406508E-2,-3.8661744E-2,6.570383E-2,-1.5069716E-2],"split_indices":[206,302,347,194,24,56,282,0,0,0,0,0,0,0,0],"split_type":[0,0,0,0,0,0,0,0,0,0,0,0,0,0,0],"sum_hessian":[3.3184534E2,1.2115705E2,2.1068828E2,1.2987912E1,1.08169136E2,7.698843E1,1.3369984E2,7.615059E0,5.372853E0,2.9124607E1,7.904453E1,6.415845E1,1.2829981E1,1.5380489E1,1.1831936E2],"tree_param":{"num_deleted":"0","num_feature":"392","num_nodes":"15","size_leaf_vector":"1"}},{"base_weights":[5.70375E-4,-3.5685882E-2,5.348206E-1,-8.943714E-3,-1.0525002E0,-9.6463285E-2,6.8892235E-1,7.916343E-3,-2.9994635E-2,3.4661304E-2,-1.4313617E-1,8.840993E-2,-3.8634747E-2],"categories":[],"categories_nodes":[],"categories_segments":[],"categories_sizes":[],"default_left":[0,0,0,0,0,0,0,0,0,0,0,0,0],"id":60,"left_children":[1,3,5,7,9,-1,11,-1,-1,-1,-1,-1,-1],"loss_changes":[6.4466324E0,8.465751E0,5.55183E0,7.836127E0,4.725322E0,0E0,4.48919E0,0E0,0E0,0E0,0E0,0E0,0E0],"parents":[2147483647,0,0,1,1,2,2,3,3,4,4,6,6],"right_children":[2,4,6,8,10,-1,12,-1,-1,-1,-1,-1,-1],"split_conditions":[5.5753227E-2,7.92106E-2,-1E0,7.602973E-2,-5.898822E-2,-9.6463285E-2,8.3099276E-2,7.916343E-3,-2.9994635E-2,3.4661304E-2,-1.4313617E-1,8.840993E-2,-3.8634747E-2],"split_indices":[134,53,385,99,350,0,240,0,0,0,0,0,0],"split_type":[0,0,0,0,0,0,0,0,0,0,0,0,0],"sum_hessian":[3.3083142E2,3.1068066E2,2.0150768E1,3.037021E2,6.978555E0,1.3877594E0,1.876301E1,2.3367888E2,7.002322E1,1.5051696E0,5.4733853E0,1.603095E1,2.73206E0],"tree_param":{"num_deleted":"0","num_feature":"392","num_nodes":"13","size_leaf_vector":"1"}},{"base_weights":[-1.4617992E-5,-4.2454775E-2,4.5357212E-1,3.5153437E-1,-1.0011321E-1,6.940276E-1,-5.236069E-1,6.3906275E-2,-2.6606305E-2,-1.7660031E-2,3.323411E-2,8.846101E-2,-2.6510207E-2,-1.0798564E-1,6.80533E-2],"categories":[],"categories_nodes":[],"categories_segments":[],"categories_sizes":[],"default_left":[0,0,0,0,0,0,0,0,0,0,0,0,0,0,0],"id":61,"left_children":[1,3,5,7,9,11,13,-1,-1,-1,-1,-1,-1,-1,-1],"loss_changes":[6.3806863E0,6.920636E0,7.027024E0,7.0806184E0,8.8302E0,4.4733696E0,4.8678174E0,0E0,0E0,0E0,0E0,0E0,0E0,0E0,0E0],"parents":[2147483647,0,0,1,1,2,2,3,3,4,4,5,5,6,6],"right_children":[2,4,6,8,10,12,14,-1,-1,-1,-1,-1,-1,-1,-1],"split_conditions":[1.0295205E-33,-5.422159E-2,5.4702926E-2,1.7968796E-33,5.047354E-2,4.779772E-2,1.1254471E-3,6.3906275E-2,-2.6606305E-2,-1.7660031E-2,3.323411E-2,8.846101E-2,-2.6510207E-2,-1.0798564E-1,6.80533E-2],"split_indices":[127,362,220,223,357,326,94,0,0,0,0,0,0,0,0],"split_type":[0,0,0,0,0,0,0,0,0,0,0,0,0,0,0],"sum_hessian":[3.294589E2,3.0209918E2,2.7359716E1,3.7916046E1,2.6418314E2,2.218933E1,5.170387E0,2.5847664E1,1.2068384E1,2.2498265E2,3.9200478E1,1.857592E1,3.613408E0,3.6072433E0,1.5631437E0],"tree_param":{"num_deleted":"0","num_feature":"392","num_nodes":"15","size_leaf_vector":"1"}},{"base_weights":[4.4674036E-4,4.7120403E-2,-3.9971823E-1,-1.7491902E-1,1.5727037E-1,-7.3431724E-1,3.7771863E-1,-1.081593E-2,-1.5189134E-1,-1.0374687E-2,3.0314822E-2,9.938025E-3,-1.10448256E-1,1.0528231E-1,-2.7399555E-2],"categories":[],"categories_nodes":[],"categories_segments":[],"categories_sizes":[],"default_left":[0,0,0,0,0,0,0,0,0,0,0,0,0,0,0],"id":62,"left_children":[1,3,5,7,9,11,13,-1,-1,-1,-1,-1,-1,-1,-1],"loss_changes":[6.164462E0,7.256447E0,9.245388E0,8.671872E0,7.574012E0,7.652604E0,5.1429505E0,0E0,0E0,0E0,0E0,0E0,0E0,0E0,0E0],"parents":[2147483647,0,0,1,1,2,2,3,3,4,4,5,5,6,6],"right_children":[2,4,6,8,10,12,14,-1,-1,-1,-1,-1,-1,-1,-1],"split_conditions":[8.6745545E-2,-1.706808E-2,3.1890083E-2,8.292789E-2,-3.297396E-2,-3.5511266E-2,-1.4040603E-2,-1.081593E-2,-1.5189134E-1,-1.0374687E-2,3.0314822E-2,9.938025E-3,-1.10448256E-1,1.0528231E-1,-2.7399555E-2],"split_indices":[238,5,181,359,134,134,253,0,0,0,0,0,0,0,0],"split_type":[0,0,0,0,0,0,0,0,0,0,0,0,0,0,0],"sum_hessian":[3.2804498E2,2.9456976E2,3.347521E1,9.7480774E1,1.9708899E2,2.3441671E1,1.0033536E1,9.389713E1,3.583642E0,7.076283E1,1.26326164E2,7.4328055E0,1.6008867E1,4.6260195E0,5.4075165E0],"tree_param":{"num_deleted":"0","num_feature":"392","num_nodes":"15","size_leaf_vector":"1"}},{"base_weights":[-1.2022295E-4,-3.962876E-2,4.6863142E-1,-1.2799117E-1,2.103666E-1,6.956495E-1,-4.121752E-1,3.6055773E-2,-2.2047075E-2,3.149569E-2,-6.332529E-2,9.845859E-2,-1.6108712E-2,-8.720064E-2,6.289444E-2],"categories":[],"categories_nodes":[],"categories_segments":[],"categories_sizes":[],"default_left":[0,0,0,0,0,0,0,0,0,0,0,0,0,0,0],"id":63,"left_children":[1,3,5,7,9,11,13,-1,-1,-1,-1,-1,-1,-1,-1],"loss_changes":[6.0937934E0,6.7304955E0,5.401195E0,1.0237741E1,7.225384E0,5.2847633E0,3.358336E0,0E0,0E0,0E0,0E0,0E0,0E0,0E0,0E0],"parents":[2147483647,0,0,1,1,2,2,3,3,4,4,5,5,6,6],"right_children":[2,4,6,8,10,12,14,-1,-1,-1,-1,-1,-1,-1,-1],"split_conditions":[5.5842653E-2,2.065762E-2,5.943543E-2,-6.897283E-2,9.029432E-2,5.1376637E-2,4.7586344E-2,3.6055773E-2,-2.2047075E-2,3.149569E-2,-6.332529E-2,9.845859E-2,-1.6108712E-2,-8.720064E-2,6.289444E-2],"split_indices":[295,46,143,311,245,373,33,0,0,0,0,0,0,0,0],"split_type":[0,0,0,0,0,0,0,0,0,0,0,0,0,0,0],"sum_hessian":[3.270412E2,3.0246365E2,2.4577564E1,2.2383559E2,7.862806E1,1.9708206E1,4.8693576E0,3.516547E1,1.8867012E2,7.051269E1,8.115367E0,1.4626244E1,5.0819635E0,3.490252E0,1.3791053E0],"tree_param":{"num_deleted":"0","num_feature":"392","num_nodes":"15","size_leaf_vector":"1"}},{"base_weights":[7.464745E-5,-2.5265682E-1,7.3498935E-2,-5.1312274E-1,3.738972E-1,-2.8805333E-1,1.7495413E-1,5.164752E-2,-6.590982E-2,1.0342635E-1,-1.808141E-2,-5.880936E-2,2.8169787E-2,4.7057565E-2,-1.3503442E-3],"categories":[],"categories_nodes":[],"categories_segments":[],"categories_sizes":[],"default_left":[0,0,0,0,0,0,0,0,0,0,0,0,0,0,0],"id":64,"left_children":[1,3,5,7,9,11,13,-1,-1,-1,-1,-1,-1,-1,-1],"loss_changes":[6.098178E0,1.2265143E1,9.391094E0,8.257719E0,8.356577E0,9.768868E0,1.1119148E1,0E0,0E0,0E0,0E0,0E0,0E0,0E0,0E0],"parents":[2147483647,0,0,1,1,2,2,3,3,4,4,5,5,6,6],"right_children":[2,4,6,8,10,12,14,-1,-1,-1,-1,-1,-1,-1,-1],"split_conditions":[-2.6870346E-2,2.6771719E-2,-2.9847432E-2,-3.713054E-2,-1.5658608E-2,8.903386E-3,1.0488315E-3,5.164752E-2,-6.590982E-2,1.0342635E-1,-1.808141E-2,-5.880936E-2,2.8169787E-2,4.7057565E-2,-1.3503442E-3],"split_indices":[309,84,104,63,27,46,36,0,0,0,0,0,0,0,0],"split_type":[0,0,0,0,0,0,0,0,0,0,0,0,0,0,0],"sum_hessian":[3.2662457E2,7.29803E1,2.5364429E2,5.167813E1,2.1302174E1,5.517607E1,1.9846822E2,6.101904E0,4.5576225E1,9.330272E0,1.1971901E1,3.6121635E1,1.9054436E1,7.6683174E1,1.2178504E2],"tree_param":{"num_deleted":"0","num_feature":"392","num_nodes":"15","size_leaf_vector":"1"}},{"base_weights":[4.4106587E-4,-6.359937E-2,2.7850068E-1,-2.0584485E-1,1.5428461E-1,3.786667E-1,-8.838102E-1,-3.9795365E-2,5.990475E-3,-2.6286533E-2,3.9149188E-2,7.3264614E-2,1.1511947E-3,-1.463756E-1,5.253004E-2],"categories":[],"categories_nodes":[],"categories_segments":[],"categories_sizes":[],"default_left":[0,0,0,0,0,0,0,0,0,0,0,0,0,0,0],"id":65,"left_children":[1,3,5,7,9,11,13,-1,-1,-1,-1,-1,-1,-1,-1],"loss_changes":[5.8368E0,8.289101E0,7.47839E0,8.275016E0,1.0572484E1,7.4244356E0,4.9924498E0,0E0,0E0,0E0,0E0,0E0,0E0,0E0,0E0],"parents":[2147483647,0,0,1,1,2,2,3,3,4,4,5,5,6,6],"right_children":[2,4,6,8,10,12,14,-1,-1,-1,-1,-1,-1,-1,-1],"split_conditions":[3.8230255E-2,1.108652E-2,5.3634882E-2,-4.4341607E-4,-1.926794E-2,5.4214995E-2,3.2473814E-3,-3.9795365E-2,5.990475E-3,-2.6286533E-2,3.9149188E-2,7.3264614E-2,1.1511947E-3,-1.463756E-1,5.253004E-2],"split_indices":[367,82,284,96,343,99,258,0,0,0,0,0,0,0,0],"split_type":[0,0,0,0,0,0,0,0,0,0,0,0,0,0,0],"sum_hessian":[3.2578543E2,2.6542593E2,6.035948E1,1.606203E2,1.0480565E2,5.6191227E1,4.1682553E0,9.293828E1,6.7682014E1,3.795328E1,6.685236E1,2.8102102E1,2.8089127E1,2.9254513E0,1.242804E0],"tree_param":{"num_deleted":"0","num_feature":"392","num_nodes":"15","size_leaf_vector":"1"}},{"base_weights":[4.3079536E-4,2.329973E-2,-7.6720536E-1,-3.3129144E-1,8.087872E-2,1.1313643E-1,-1.2448287E-1,3.2683432E-2,-5.8925908E-2,1.4800424E-2,-3.281917E-2,-6.378068E-2,1.0675349E-1],"categories":[],"categories_nodes":[],"categories_segments":[],"categories_sizes":[],"default_left":[0,0,0,0,0,0,0,0,0,0,0,0,0],"id":66,"left_children":[1,3,5,7,9,11,-1,-1,-1,-1,-1,-1,-1],"loss_changes":[5.7365007E0,6.5051293E0,4.115721E0,7.7513657E0,7.566281E0,3.7208552E0,0E0,0E0,0E0,0E0,0E0,0E0,0E0],"parents":[2147483647,0,0,1,1,2,2,3,3,4,4,5,5],"right_children":[2,4,6,8,10,12,-1,-1,-1,-1,-1,-1,-1],"split_conditions":[1.0625296E-1,-4.6382897E-2,-3.8990527E-2,-2.9341394E-2,4.901333E-2,4.1998517E-2,-1.2448287E-1,3.2683432E-2,-5.8925908E-2,1.4800424E-2,-3.281917E-2,-6.378068E-2,1.0675349E-1],"split_indices":[287,371,266,160,45,347,0,0,0,0,0,0,0],"split_type":[0,0,0,0,0,0,0,0,0,0,0,0,0],"sum_hessian":[3.247544E2,3.16301E2,8.453393E0,4.352227E1,2.7277872E2,3.2416332E0,5.21176E0,1.2180494E1,3.1341776E1,2.3487553E2,3.7903187E1,1.9998348E0,1.2417983E0],"tree_param":{"num_deleted":"0","num_feature":"392","num_nodes":"13","size_leaf_vector":"1"}},{"base_weights":[-5.467165E-6,-2.370895E-2,7.3428166E-1,3.8826942E-1,-6.817353E-2,-4.7447924E-2,9.183645E-2,-7.686984E-2,5.5536725E-2,2.8316965E-2,-1.3016862E-2],"categories":[],"categories_nodes":[],"categories_segments":[],"categories_sizes":[],"default_left":[0,0,0,0,0,0,0,0,0,0,0],"id":67,"left_children":[1,3,5,7,9,-1,-1,-1,-1,-1,-1],"loss_changes":[5.677481E0,5.8149953E0,2.7055044E0,6.40691E0,6.267741E0,0E0,0E0,0E0,0E0,0E0,0E0],"parents":[2147483647,0,0,1,1,2,2,3,3,4,4],"right_children":[2,4,6,8,10,-1,-1,-1,-1,-1,-1],"split_conditions":[1.2E1,-8.8486105E-2,-4.6737313E-2,-5.5808704E-2,-4.1128535E-2,-4.7447924E-2,9.183645E-2,-7.686984E-2,5.5536725E-2,2.8316965E-2,-1.3016862E-2],"split_indices":[388,292,16,171,43,0,0,0,0,0,0],"split_type":[0,0,0,0,0,0,0,0,0,0,0],"sum_hessian":[3.24195E2,3.1499442E2,9.200606E0,2.9932083E1,2.8506232E2,1.0074911E0,8.193115E0,3.323087E0,2.6608997E1,4.2220356E1,2.4284196E2],"tree_param":{"num_deleted":"0","num_feature":"392","num_nodes":"11","size_leaf_vector":"1"}},{"base_weights":[2.4714592E-4,2.2907626E-2,-7.539791E-1,8.280624E-2,-3.1470248E-1,1.0869856E-2,-9.6487336E-2,1.4298068E-2,-3.736589E-2,5.5465515E-4,-8.020314E-2],"categories":[],"categories_nodes":[],"categories_segments":[],"categories_sizes":[],"default_left":[0,0,0,0,0,0,0,0,0,0,0],"id":68,"left_children":[1,3,5,7,9,-1,-1,-1,-1,-1,-1],"loss_changes":[5.5593443E0,6.411846E0,1.831028E0,7.4418335E0,7.463085E0,0E0,0E0,0E0,0E0,0E0,0E0],"parents":[2147483647,0,0,1,1,2,2,3,3,4,4],"right_children":[2,4,6,8,10,-1,-1,-1,-1,-1,-1],"split_conditions":[9.209243E-1,4.9596533E-2,-1.6635546E-2,4.797655E-2,1.4965003E-2,1.0869856E-2,-9.6487336E-2,1.4298068E-2,-3.736589E-2,5.5465515E-4,-8.020314E-2],"split_indices":[384,32,273,17,219,0,0,0,0,0,0],"split_type":[0,0,0,0,0,0,0,0,0,0,0],"sum_hessian":[3.2326605E2,3.1477826E2,8.487782E0,2.6798688E2,4.679137E1,1.7625457E0,6.7252355E0,2.373805E2,3.0606401E1,2.8832598E1,1.7958773E1],"tree_param":{"num_deleted":"0","num_feature":"392","num_nodes":"11","size_leaf_vector":"1"}},{"base_weights":[-4.255245E-4,1.4028901E-1,-1.2250372E-1,4.0004835E-1,-1.07913E-1,8.711975E-2,-3.8164002E-1,6.6628926E-2,-1.3410402E-3,-1.9089412E-2,1.0318493E-1,-4.306037E-2,2.6228962E-2,7.738762E-2,-4.866469E-2],"categories":[],"categories_nodes":[],"categories_segments":[],"categories_sizes":[],"default_left":[0,0,0,0,0,0,0,0,0,0,0,0,0,0,0],"id":69,"left_children":[1,3,5,7,9,11,13,-1,-1,-1,-1,-1,-1,-1,-1],"loss_changes":[5.56873E0,9.752391E0,9.462303E0,8.132405E0,7.5549893E0,8.8891E0,9.817692E0,0E0,0E0,0E0,0E0,0E0,0E0,0E0,0E0],"parents":[2147483647,0,0,1,1,2,2,3,3,4,4,5,5,6,6],"right_children":[2,4,6,8,10,12,14,-1,-1,-1,-1,-1,-1,-1,-1],"split_conditions":[-7.2644104E-4,-4.1831477E-4,2.6368856E-2,2.6518993E-2,8.609253E-2,-2.8457327E-2,-8.495181E-2,6.6628926E-2,-1.3410402E-3,-1.9089412E-2,1.0318493E-1,-4.306037E-2,2.6228962E-2,7.738762E-2,-4.866469E-2],"split_indices":[102,285,349,187,291,111,265,0,0,0,0,0,0,0,0],"split_type":[0,0,0,0,0,0,0,0,0,0,0,0,0,0,0],"sum_hessian":[3.2217422E2,1.4959407E2,1.7258014E2,7.2796295E1,7.679778E1,9.577143E1,7.680871E1,4.3909737E1,2.8886559E1,7.236194E1,4.435842E0,2.384326E1,7.192818E1,5.8678603E0,7.094085E1],"tree_param":{"num_deleted":"0","num_feature":"392","num_nodes":"15","size_leaf_vector":"1"}},{"base_weights":[2.4003041E-4,5.924485E-1,-2.8826576E-2,-8.188176E-2,8.307749E-1,1.05913505E-1,-1.8126504E-1,-7.974241E-2,1.09833114E-1,-1.715123E-2,2.9603157E-2,-1.3053504E-1,-1.2004937E-2],"categories":[],"categories_nodes":[],"categories_segments":[],"categories_sizes":[],"default_left":[0,0,0,0,0,0,0,0,0,0,0,0,0],"id":70,"left_children":[1,3,5,-1,7,9,11,-1,-1,-1,-1,-1,-1],"loss_changes":[5.5582333E0,5.7613654E0,6.3412933E0,0E0,6.7223873E0,8.701587E0,9.806154E0,0E0,0E0,0E0,0E0,0E0,0E0],"parents":[2147483647,0,0,1,1,2,2,4,4,5,5,6,6],"right_children":[2,4,6,-1,8,10,12,-1,-1,-1,-1,-1,-1],"split_conditions":[-9.291202E-2,-5.5068567E-2,1.4158007E-2,-8.188176E-2,-5.967554E-2,-5.0890853E-4,-9.351399E-2,-7.974241E-2,1.09833114E-1,-1.715123E-2,2.9603157E-2,-1.3053504E-1,-1.2004937E-2],"split_indices":[216,147,214,0,357,339,230,0,0,0,0,0,0],"split_type":[0,0,0,0,0,0,0,0,0,0,0,0,0],"sum_hessian":[3.209077E2,1.4106982E1,3.0680072E2,1.6862198E0,1.2420763E1,1.630162E2,1.4378453E2,1.4734945E0,1.09472685E1,6.632732E1,9.668889E1,6.3762136E0,1.3740831E2],"tree_param":{"num_deleted":"0","num_feature":"392","num_nodes":"13","size_leaf_vector":"1"}},{"base_weights":[-2.686257E-4,-6.804318E-1,2.4399329E-2,-1.1321781E0,2.992404E-1,6.752626E-1,-5.0453055E-3,-1.4645168E-1,4.7122475E-2,-4.6368405E-2,8.613887E-2,1.0118028E-1,-5.112764E-2,1.6481256E-3,-1.0205444E-1],"categories":[],"categories_nodes":[],"categories_segments":[],"categories_sizes":[],"default_left":[0,0,0,0,0,0,0,0,0,0,0,0,0,0,0],"id":71,"left_children":[1,3,5,7,9,11,13,-1,-1,-1,-1,-1,-1,-1,-1],"loss_changes":[5.409202E0,5.332348E0,5.9658685E0,4.9165373E0,2.2658277E0,5.8973866E0,6.545327E0,0E0,0E0,0E0,0E0,0E0,0E0,0E0,0E0],"parents":[2147483647,0,0,1,1,2,2,3,3,4,4,5,5,6,6],"right_children":[2,4,6,8,10,12,14,-1,-1,-1,-1,-1,-1,-1,-1],"split_conditions":[-8.50347E-2,4.5610894E-3,-9.291202E-2,2.4997743E-2,5.751792E-3,6.069932E-2,1.2103712E-1,-1.4645168E-1,4.7122475E-2,-4.6368405E-2,8.613887E-2,1.0118028E-1,-5.112764E-2,1.6481256E-3,-1.0205444E-1],"split_indices":[343,327,216,196,375,247,271,0,0,0,0,0,0,0,0],"split_type":[0,0,0,0,0,0,0,0,0,0,0,0,0,0,0],"sum_hessian":[3.204045E2,1.0283257E1,3.1012125E2,6.931387E0,3.3518703E0,1.247316E1,2.9764807E2,5.8131166E0,1.1182702E0,1.4963044E0,1.8555658E0,9.831811E0,2.641349E0,2.9243286E2,5.215225E0],"tree_param":{"num_deleted":"0","num_feature":"392","num_nodes":"15","size_leaf_vector":"1"}},{"base_weights":[-5.749191E-4,2.964504E-1,-5.6666575E-2,6.2500066E-1,-3.325713E-2,9.785743E-2,-2.1708578E-1,-5.4236054E-2,8.322778E-2,3.8124826E-2,-5.5179484E-2,2.4119545E-2,-4.940076E-2,-4.8017617E-2,5.7813134E-3],"categories":[],"categories_nodes":[],"categories_segments":[],"categories_sizes":[],"default_left":[0,0,0,0,0,0,0,0,0,0,0,0,0,0,0],"id":72,"left_children":[1,3,5,7,9,11,13,-1,-1,-1,-1,-1,-1,-1,-1],"loss_changes":[5.361453E0,5.558157E0,6.730959E0,6.658922E0,5.8983455E0,1.1874238E1,9.6551485E0,0E0,0E0,0E0,0E0,0E0,0E0,0E0,0E0],"parents":[2147483647,0,0,1,1,2,2,3,3,4,4,5,5,6,6],"right_children":[2,4,6,8,10,12,14,-1,-1,-1,-1,-1,-1,-1,-1],"split_conditions":[-4.2147547E-2,-3.0443812E-2,-5.0096754E-3,-6.82256E-2,1.586116E-2,5.2899294E-2,-2.6654413E-2,-5.4236054E-2,8.322778E-2,3.8124826E-2,-5.5179484E-2,2.4119545E-2,-4.940076E-2,-4.8017617E-2,5.7813134E-3],"split_indices":[187,305,376,268,102,36,122,0,0,0,0,0,0,0,0],"split_type":[0,0,0,0,0,0,0,0,0,0,0,0,0,0,0],"sum_hessian":[3.1979517E2,5.01179E1,2.6967728E2,2.465441E1,2.5463493E1,1.3756123E2,1.3211604E2,3.473796E0,2.1180614E1,1.429845E1,1.1165043E1,1.11218735E2,2.6342495E1,6.712639E1,6.4989655E1],"tree_param":{"num_deleted":"0","num_feature":"392","num_nodes":"15","size_leaf_vector":"1"}},{"base_weights":[-5.8561354E-4,-1.5070155E-1,1.0831546E-1,5.230018E-1,-2.5665256E-1,2.210963E-2,5.4878175E-1,7.435689E-2,-8.420803E-2,-6.950154E-2,-9.666002E-3,1.4310827E-2,-3.7925165E-2,-6.2028248E-2,8.367312E-2],"categories":[],"categories_nodes":[],"categories_segments":[],"categories_sizes":[],"default_left":[0,0,0,0,0,0,0,0,0,0,0,0,0,0,0],"id":73,"left_children":[1,3,5,7,9,11,13,-1,-1,-1,-1,-1,-1,-1,-1],"loss_changes":[5.2420754E0,9.757366E0,7.044531E0,6.2415266E0,8.150261E0,7.6529894E0,1.0744902E1,0E0,0E0,0E0,0E0,0E0,0E0,0E0,0E0],"parents":[2147483647,0,0,1,1,2,2,3,3,4,4,5,5,6,6],"right_children":[2,4,6,8,10,12,14,-1,-1,-1,-1,-1,-1,-1,-1],"split_conditions":[-1.382393E-2,-2.8248781E-2,4.7886036E-2,6.574471E-2,-3.3951554E-2,6.0870674E-2,-5.562551E-2,7.435689E-2,-8.420803E-2,-6.950154E-2,-9.666002E-3,1.4310827E-2,-3.7925165E-2,-6.2028248E-2,8.367312E-2],"split_indices":[303,179,230,345,155,238,46,0,0,0,0,0,0,0,0],"split_type":[0,0,0,0,0,0,0,0,0,0,0,0,0,0,0],"sum_hessian":[3.1866113E2,1.3381645E2,1.8484467E2,1.7650045E1,1.16166405E2,1.5546754E2,2.9377123E1,1.5586849E1,2.0631967E0,3.0167246E1,8.599916E1,1.19949684E2,3.5517864E1,5.5777054E0,2.379942E1],"tree_param":{"num_deleted":"0","num_feature":"392","num_nodes":"15","size_leaf_vector":"1"}},{"base_weights":[-7.4884534E-4,9.553749E-2,-1.7265564E-1,-6.1621076E-1,1.3879274E-1,-7.345558E-2,-7.6987016E-1,-1.023368E-1,3.594204E-2,2.4023298E-2,-1.983176E-2,4.3313272E-2,-2.1660771E-2,-1.0424731E-1,3.1049225E-2],"categories":[],"categories_nodes":[],"categories_segments":[],"categories_sizes":[],"default_left":[0,0,0,0,0,0,0,0,0,0,0,0,0,0,0],"id":74,"left_children":[1,3,5,7,9,11,13,-1,-1,-1,-1,-1,-1,-1,-1],"loss_changes":[5.290155E0,6.392658E0,6.7411823E0,5.1031895E0,6.6798472E0,7.3097E0,5.1061707E0,0E0,0E0,0E0,0E0,0E0,0E0,0E0,0E0],"parents":[2147483647,0,0,1,1,2,2,3,3,4,4,5,5,6,6],"right_children":[2,4,6,8,10,12,14,-1,-1,-1,-1,-1,-1,-1,-1],"split_conditions":[-2.0789308E-8,-8.901745E-2,5.9530836E-2,3.4384795E-2,2.6283346E-2,-2.7599286E-2,6.742297E-2,-1.023368E-1,3.594204E-2,2.4023298E-2,-1.983176E-2,4.3313272E-2,-2.1660771E-2,-1.0424731E-1,3.1049225E-2],"split_indices":[319,24,54,130,279,33,287,0,0,0,0,0,0,0,0],"split_type":[0,0,0,0,0,0,0,0,0,0,0,0,0,0,0],"sum_hessian":[3.1760635E2,2.038645E2,1.13741844E2,1.0920817E1,1.9294368E2,9.850304E1,1.5238808E1,7.6706986E0,3.2501187E0,1.4853519E2,4.44085E1,2.1256088E1,7.724695E1,1.2196413E1,3.0423942E0],"tree_param":{"num_deleted":"0","num_feature":"392","num_nodes":"15","size_leaf_vector":"1"}},{"base_weights":[-1.1008583E-3,1.2540023E-1,-1.3290484E-1,3.3285144E-1,-1.2341067E-1,-9.236024E-2,-1.3964055E0,3.9170038E-2,-9.5780775E-2,8.623227E-2,-2.4594953E-2,2.3726417E-2,-2.3040934E-2,-1.8412916E-1,-4.5856717E-3],"categories":[],"categories_nodes":[],"categories_segments":[],"categories_sizes":[],"default_left":[0,0,0,0,0,0,0,0,0,0,0,0,0,0,0],"id":75,"left_children":[1,3,5,7,9,11,13,-1,-1,-1,-1,-1,-1,-1,-1],"loss_changes":[5.2976103E0,8.409629E0,7.842081E0,7.1110897E0,9.204503E0,6.9636927E0,2.7797527E0,0E0,0E0,0E0,0E0,0E0,0E0,0E0,0E0],"parents":[2147483647,0,0,1,1,2,2,3,3,4,4,5,5,6,6],"right_children":[2,4,6,8,10,12,14,-1,-1,-1,-1,-1,-1,-1,-1],"split_conditions":[-3.0831841E-3,2.5661059E-2,1.0244382E-1,9.878456E-2,-5.6692634E-2,-2.8720373E-2,9.685937E-3,3.9170038E-2,-9.5780775E-2,8.623227E-2,-2.4594953E-2,2.3726417E-2,-2.3040934E-2,-1.8412916E-1,-4.5856717E-3],"split_indices":[377,347,148,287,106,162,152,0,0,0,0,0,0,0,0],"split_type":[0,0,0,0,0,0,0,0,0,0,0,0,0,0,0],"sum_hessian":[3.157297E2,1.6113055E2,1.5459917E2,8.7684235E1,7.344631E1,1.508322E2,3.7669704E0,8.4526665E1,3.1575692E0,7.4532614E0,6.599305E1,4.4310898E1,1.065213E2,2.5602343E0,1.206736E0],"tree_param":{"num_deleted":"0","num_feature":"392","num_nodes":"15","size_leaf_vector":"1"}},{"base_weights":[-1.4975767E-3,1.650789E-2,-8.8589185E-1,-1.4930914E-1,1.3635343E-1,5.5715576E-2,-1.4786552E-1,4.4576544E-3,-5.4645546E-2,-3.4341402E-2,2.388853E-2,6.509124E-2,-6.8613335E-2],"categories":[],"categories_nodes":[],"categories_segments":[],"categories_sizes":[],"default_left":[0,0,0,0,0,0,0,0,0,0,0,0,0],"id":76,"left_children":[1,3,5,7,9,11,-1,-1,-1,-1,-1,-1,-1],"loss_changes":[5.0516434E0,6.2004447E0,3.6153288E0,1.010746E1,8.987663E0,1.9518493E0,0E0,0E0,0E0,0E0,0E0,0E0,0E0],"parents":[2147483647,0,0,1,1,2,2,3,3,4,4,5,5],"right_children":[2,4,6,8,10,12,-1,-1,-1,-1,-1,-1,-1],"split_conditions":[9.166276E-2,-2.64749E-2,-2.4214558E-2,4.693738E-3,-4.280383E-2,7.3039925E-1,-1.4786552E-1,4.4576544E-3,-5.4645546E-2,-3.4341402E-2,2.388853E-2,6.509124E-2,-6.8613335E-2],"split_indices":[284,18,18,39,336,384,0,0,0,0,0,0,0],"split_type":[0,0,0,0,0,0,0,0,0,0,0,0,0],"sum_hessian":[3.153176E2,3.0998785E2,5.329738E0,1.2994771E2,1.8004015E2,2.409014E0,2.920724E0,8.791541E1,4.20323E1,3.1287981E1,1.4875217E2,1.4046348E0,1.0043792E0],"tree_param":{"num_deleted":"0","num_feature":"392","num_nodes":"13","size_leaf_vector":"1"}},{"base_weights":[-2.0009256E-3,5.998367E-1,-2.8266672E-2,1.1191978E0,-2.1474944E-1,-1.9118138E-1,9.644592E-2,1.2921357E-1,2.5037205E-2,4.925505E-2,-1.0963314E-1,2.4580767E-2,-3.184597E-2,3.1624824E-2,-1.7304957E-2],"categories":[],"categories_nodes":[],"categories_segments":[],"categories_sizes":[],"default_left":[0,0,0,0,0,0,0,0,0,0,0,0,0,0,0],"id":77,"left_children":[1,3,5,7,9,11,13,-1,-1,-1,-1,-1,-1,-1,-1],"loss_changes":[5.0068054E0,5.8438764E0,6.183059E0,9.159546E-1,4.2786856E0,7.4140606E0,1.0274144E1,0E0,0E0,0E0,0E0,0E0,0E0,0E0,0E0],"parents":[2147483647,0,0,1,1,2,2,3,3,4,4,5,5,6,6],"right_children":[2,4,6,8,10,12,14,-1,-1,-1,-1,-1,-1,-1,-1],"split_conditions":[-7.871155E-2,2.3655849E-2,7.992296E-3,1.8480614E-2,-2.1852275E-2,-4.0843155E-2,1.3698373E-2,1.2921357E-1,2.5037205E-2,4.925505E-2,-1.0963314E-1,2.4580767E-2,-3.184597E-2,3.1624824E-2,-1.7304957E-2],"split_indices":[294,373,206,164,378,250,261,0,0,0,0,0,0,0,0],"split_type":[0,0,0,0,0,0,0,0,0,0,0,0,0,0,0],"sum_hessian":[3.1465918E2,1.2245097E1,3.0241406E2,7.249218E0,4.9958787E0,1.3089291E2,1.7152116E2,5.639473E0,1.6097449E0,3.0167806E0,1.9790983E0,2.9314646E1,1.0157826E2,9.437489E1,7.714627E1],"tree_param":{"num_deleted":"0","num_feature":"392","num_nodes":"15","size_leaf_vector":"1"}},{"base_weights":[-1.3980212E-3,-3.8777262E-2,4.1799346E-1,5.976115E-1,-6.597631E-2,7.967016E-1,-2.111483E-1,8.390896E-2,-8.868088E-2,-2.3366777E-2,5.5630086E-3,9.404566E-2,-6.699736E-2,-1.3045678E-1,1.4852682E-2],"categories":[],"categories_nodes":[],"categories_segments":[],"categories_sizes":[],"default_left":[0,0,0,0,0,0,0,0,0,0,0,0,0,0,0],"id":78,"left_children":[1,3,5,7,9,11,13,-1,-1,-1,-1,-1,-1,-1,-1],"loss_changes":[4.949969E0,5.0570583E0,6.3248444E0,5.038797E0,5.700462E0,4.0751944E0,4.3231683E0,0E0,0E0,0E0,0E0,0E0,0E0,0E0,0E0],"parents":[2147483647,0,0,1,1,2,2,3,3,4,4,5,5,6,6],"right_children":[2,4,6,8,10,12,14,-1,-1,-1,-1,-1,-1,-1,-1],"split_conditions":[1.0295205E-33,-7.871155E-2,4.102383E-2,8.712817E-2,-1.382393E-2,7.599352E-2,-5.801732E-2,8.390896E-2,-8.868088E-2,-2.3366777E-2,5.5630086E-3,9.404566E-2,-6.699736E-2,-1.3045678E-1,1.4852682E-2],"split_indices":[127,294,6,273,303,25,283,0,0,0,0,0,0,0,0],"split_type":[0,0,0,0,0,0,0,0,0,0,0,0,0,0,0],"sum_hessian":[3.1372263E2,2.888828E2,2.4839811E1,1.0981101E1,2.7790173E2,1.5339788E1,9.500024E0,9.818597E0,1.1625046E0,1.16428665E2,1.6147305E2,1.4297238E1,1.0425496E0,1.7012177E0,7.7988067E0],"tree_param":{"num_deleted":"0","num_feature":"392","num_nodes":"15","size_leaf_vector":"1"}},{"base_weights":[-1.4138677E-3,-3.0869013E-1,4.8593245E-2,-7.052659E-1,3.7089765E-2,-4.3077284E-1,9.292818E-2,6.627215E-2,-8.987379E-2,-5.404386E-2,4.149616E-2,-8.0225006E-2,2.3976715E-2,-1.39649315E-2,2.3312785E-2],"categories":[],"categories_nodes":[],"categories_segments":[],"categories_sizes":[],"default_left":[0,0,0,0,0,0,0,0,0,0,0,0,0,0,0],"id":79,"left_children":[1,3,5,7,9,11,13,-1,-1,-1,-1,-1,-1,-1,-1],"loss_changes":[4.8331714E0,6.063003E0,5.7896643E0,6.0359907E0,5.563938E0,5.9414296E0,8.134058E0,0E0,0E0,0E0,0E0,0E0,0E0,0E0,0E0],"parents":[2147483647,0,0,1,1,2,2,3,3,4,4,5,5,6,6],"right_children":[2,4,6,8,10,12,14,-1,-1,-1,-1,-1,-1,-1,-1],"split_conditions":[-5.796631E-2,-3.6516173E-3,-6.2027913E-2,-6.463284E-2,-3.0584259E-2,3.7763763E-2,-4.1289898E-3,6.627215E-2,-8.987379E-2,-5.404386E-2,4.149616E-2,-8.0225006E-2,2.3976715E-2,-1.39649315E-2,2.3312785E-2],"split_indices":[364,89,371,109,91,231,4,0,0,0,0,0,0,0,0],"split_type":[0,0,0,0,0,0,0,0,0,0,0,0,0,0,0],"sum_hessian":[3.1256055E2,4.302346E1,2.6953708E2,1.9555536E1,2.3467924E1,2.208029E1,2.4745679E2,2.1225019E0,1.7433035E1,9.11168E0,1.4356244E1,1.4082308E1,7.997982E0,9.306876E1,1.5438803E2],"tree_param":{"num_deleted":"0","num_feature":"392","num_nodes":"15","size_leaf_vector":"1"}},{"base_weights":[-1.514654E-3,1.925862E-2,-7.3001164E-1,-1.7567515E-2,4.6230027E-1,1.2334718E-2,-9.430846E-2,-1.9178187E-2,9.969475E-3,-3.1406146E-2,7.450019E-2],"categories":[],"categories_nodes":[],"categories_segments":[],"categories_sizes":[],"default_left":[0,0,0,0,0,0,0,0,0,0,0],"id":80,"left_children":[1,3,5,7,9,-1,-1,-1,-1,-1,-1],"loss_changes":[4.74889E0,4.9872174E0,1.6982422E0,5.794723E0,5.3821716E0,0E0,0E0,0E0,0E0,0E0,0E0],"parents":[2147483647,0,0,1,1,2,2,3,3,4,4],"right_children":[2,4,6,8,10,-1,-1,-1,-1,-1,-1],"split_conditions":[9.209243E-1,5.5842653E-2,-5.9167124E-2,-8.05936E-3,-4.9725883E-3,1.2334718E-2,-9.430846E-2,-1.9178187E-2,9.969475E-3,-3.1406146E-2,7.450019E-2],"split_indices":[384,295,292,304,264,0,0,0,0,0,0],"split_type":[0,0,0,0,0,0,0,0,0,0,0],"sum_hessian":[3.1187564E2,3.0417557E2,7.7000785E0,2.8171912E2,2.245647E1,1.6226112E0,6.0774674E0,1.1308111E2,1.68638E2,5.964818E0,1.6491653E1],"tree_param":{"num_deleted":"0","num_feature":"392","num_nodes":"11","size_leaf_vector":"1"}},{"base_weights":[-1.5723452E-3,-3.7973142E-1,3.831044E-2,-7.647695E-1,3.698475E-1,-9.290812E-2,1.9695115E-1,-1.0635823E-1,1.2079347E-2,-7.1970336E-2,9.732382E-2,4.92133E-2,-1.957926E-2,4.5625694E-2,-6.316557E-3],"categories":[],"categories_nodes":[],"categories_segments":[],"categories_sizes":[],"default_left":[0,0,0,0,0,0,0,0,0,0,0,0,0,0,0],"id":81,"left_children":[1,3,5,7,9,11,13,-1,-1,-1,-1,-1,-1,-1,-1],"loss_changes":[4.7214103E0,8.902563E0,5.913944E0,5.435792E0,7.806608E0,9.467328E0,8.698327E0,0E0,0E0,0E0,0E0,0E0,0E0,0E0,0E0],"parents":[2147483647,0,0,1,1,2,2,3,3,4,4,5,5,6,6],"right_children":[2,4,6,8,10,12,14,-1,-1,-1,-1,-1,-1,-1,-1],"split_conditions":[-5.746405E-2,4.2628016E-2,-7.913195E-3,6.446628E-3,-2.5996437E-2,-1.6786585E-33,8.706407E-3,-1.0635823E-1,1.2079347E-2,-7.1970336E-2,9.732382E-2,4.92133E-2,-1.957926E-2,4.5625694E-2,